{"learner":{"attributes":{"scikit_learn":"{\"_estimator_type\": \"regressor\"}"},"feature_names":[],"feature_types":[],"gradient_booster":{"model":{"gbtree_model_param":{"num_parallel_tree":"1","num_trees":"300"},"iteration_indptr":[0,1,2,3,4,5,6,7,8,9,10,11,12,13,14,15,16,17,18,19,20,21,22,23,24,25,26,27,28,29,30,31,32,33,34,35,36,37,38,39,40,41,42,43,44,45,46,47,48,49,50,51,52,53,54,55,56,57,58,59,60,61,62,63,64,65,66,67,68,69,70,71,72,73,74,75,76,77,78,79,80,81,82,83,84,85,86,87,88,89,90,91,92,93,94,95,96,97,98,99,100,101,102,103,104,105,106,107,108,109,110,111,112,113,114,115,116,117,118,119,120,121,122,123,124,125,126,127,128,129,130,131,132,133,134,135,136,137,138,139,140,141,142,143,144,145,146,147,148,149,150,151,152,153,154,155,156,157,158,159,160,161,162,163,164,165,166,167,168,169,170,171,172,173,174,175,176,177,178,179,180,181,182,183,184,185,186,187,188,189,190,191,192,193,194,195,196,197,198,199,200,201,202,203,204,205,206,207,208,209,210,211,212,213,214,215,216,217,218,219,220,221,222,223,224,225,226,227,228,229,230,231,232,233,234,235,236,237,238,239,240,241,242,243,244,245,246,247,248,249,250,251,252,253,254,255,256,257,258,259,260,261,262,263,264,265,266,267,268,269,270,271,272,273,274,275,276,277,278,279,280,281,282,283,284,285,286,287,288,289,290,291,292,293,294,295,296,297,298,299,300],"tree_info":[0,0,0,0,0,0,0,0,0,0,0,0,0,0,0,0,0,0,0,0,0,0,0,0,0,0,0,0,0,0,0,0,0,0,0,0,0,0,0,0,0,0,0,0,0,0,0,0,0,0,0,0,0,0,0,0,0,0,0,0,0,0,0,0,0,0,0,0,0,0,0,0,0,0,0,0,0,0,0,0,0,0,0,0,0,0,0,0,0,0,0,0,0,0,0,0,0,0,0,0,0,0,0,0,0,0,0,0,0,0,0,0,0,0,0,0,0,0,0,0,0,0,0,0,0,0,0,0,0,0,0,0,0,0,0,0,0,0,0,0,0,0,0,0,0,0,0,0,0,0,0,0,0,0,0,0,0,0,0,0,0,0,0,0,0,0,0,0,0,0,0,0,0,0,0,0,0,0,0,0,0,0,0,0,0,0,0,0,0,0,0,0,0,0,0,0,0,0,0,0,0,0,0,0,0,0,0,0,0,0,0,0,0,0,0,0,0,0,0,0,0,0,0,0,0,0,0,0,0,0,0,0,0,0,0,0,0,0,0,0,0,0,0,0,0,0,0,0,0,0,0,0,0,0,0,0,0,0,0,0,0,0,0,0,0,0,0,0,0,0,0,0,0,0,0,0,0,0,0,0,0,0,0,0,0,0,0,0,0,0,0,0,0,0,0,0,0,0,0,0],"trees":[{"base_weights":[5.0423277E-4,1.01871744E-1,-1.00957155E-2,2.6469069E-2,3.8588515E-3,6.6148415E-2,-2.391681E-2,-0E0,8.6266757E-4,-0E0,8.946971E-2,-1.39044495E-2,-6.263843E-2,2.76432E-3,-0E0,-1.9776276E-3,-2.1820396E-4,-0E0,-2.0889675E-3],"categories":[],"categories_nodes":[],"categories_segments":[],"categories_sizes":[],"default_left":[0,0,0,0,0,0,0,0,0,0,0,0,0,0,0,0,0,0,0],"id":0,"left_children":[1,3,5,7,-1,9,11,-1,-1,-1,13,15,17,-1,-1,-1,-1,-1,-1],"loss_changes":[2.4874291E-1,2.5471076E-2,2.0916817E-1,1.832936E-4,0E0,4.4837832E-2,5.815828E-2,0E0,0E0,0E0,2.194643E-3,4.0489946E-2,1.1132926E-2,0E0,0E0,0E0,0E0,0E0,0E0],"parents":[2147483647,0,0,1,1,2,2,3,3,5,5,6,6,10,10,11,11,12,12],"right_children":[2,4,6,8,-1,10,12,-1,-1,-1,14,16,18,-1,-1,-1,-1,-1,-1],"split_conditions":[-4.954025E-2,8.3788595E0,-2.6271006E8,9.986111E-3,3.8588515E-3,4.172791E1,1.05416745E-1,-0E0,8.6266757E-4,-0E0,5.48267E1,7.906951E-3,1.4570448E1,2.76432E-3,-0E0,-1.9776276E-3,-2.1820396E-4,-0E0,-2.0889675E-3],"split_indices":[37,26,34,28,0,35,48,0,0,0,15,28,12,0,0,0,0,0,0],"split_type":[0,0,0,0,0,0,0,0,0,0,0,0,0,0,0,0,0,0,0],"sum_hessian":[2.21E2,2.1E1,2E2,7E0,1.4E1,2.9E1,1.71E2,1E0,6E0,8E0,2.1E1,1.39E2,3.2E1,2E1,1E0,1.3E1,1.26E2,4E0,2.8E1],"tree_param":{"num_deleted":"0","num_feature":"55","num_nodes":"19","size_leaf_vector":"1"}},{"base_weights":[-2.4348423E-3,9.275566E-2,-1.7131114E-2,4.2195156E-2,3.994781E-3,6.1975002E-2,-3.1403415E-2,4.891926E-2,-0E0,-0E0,8.5360706E-2,-3.9728535E-3,-4.3901995E-2,1.7134885E-3,-0E0,2.638898E-3,-0E0,-6.0693483E-4,1.1034504E-3,2.576326E-5,-1.583483E-3],"categories":[],"categories_nodes":[],"categories_segments":[],"categories_sizes":[],"default_left":[0,0,0,0,0,0,0,0,0,0,0,0,0,0,0,0,0,0,0,0,0],"id":1,"left_children":[1,3,5,7,-1,9,11,13,-1,-1,15,17,19,-1,-1,-1,-1,-1,-1,-1,-1],"loss_changes":[2.9479983E-1,3.404516E-2,2.11146E-1,4.403755E-3,0E0,4.547023E-2,5.0235838E-2,1.5124753E-3,0E0,0E0,1.73527E-3,3.4869473E-2,4.8168838E-2,0E0,0E0,0E0,0E0,0E0,0E0,0E0,0E0],"parents":[2147483647,0,0,1,1,2,2,3,3,5,5,6,6,7,7,10,10,11,11,12,12],"right_children":[2,4,6,8,-1,10,12,14,-1,-1,16,18,20,-1,-1,-1,-1,-1,-1,-1,-1],"split_conditions":[-4.541291E-2,2.8635925E2,-2.6237886E8,2.89975E2,3.994781E-3,4.172791E1,-1.866298E8,-2.8006267E-2,-0E0,-0E0,2.9042346E2,1.210825E0,-2.6059588E-2,1.7134885E-3,-0E0,2.638898E-3,-0E0,-6.0693483E-4,1.1034504E-3,2.576326E-5,-1.583483E-3],"split_indices":[37,5,34,2,0,35,34,47,0,0,25,10,37,0,0,0,0,0,0,0,0],"split_type":[0,0,0,0,0,0,0,0,0,0,0,0,0,0,0,0,0,0,0,0,0],"sum_hessian":[2.14E2,2.7E1,1.87E2,1.4E1,1.3E1,2.7E1,1.6E2,1.2E1,2E0,7E0,2E1,5.3E1,1.07E2,9E0,3E0,1.9E1,1E0,4E1,1.3E1,1.6E1,9.1E1],"tree_param":{"num_deleted":"0","num_feature":"55","num_nodes":"21","size_leaf_vector":"1"}},{"base_weights":[-1.4751987E-3,7.1828976E-2,-1.9733999E-2,9.589976E-2,-0E0,1.351191E-2,-4.6543468E-2,3.9530336E-3,5.4837868E-2,1.129694E-2,-1.8472438E-3,3.355825E-2,-3.4871932E-2,-0E0,-5.17956E-2,-0E0,1.7449486E-3,-0E0,3.6715285E-4,-0E0,-7.8017154E-5,1.4794562E-3,-0E0,-1.0831519E-3,-0E0,-1.8531637E-3,-3.821212E-4],"categories":[],"categories_nodes":[],"categories_segments":[],"categories_sizes":[],"default_left":[0,0,0,0,0,0,0,0,0,0,0,0,0,0,0,0,0,0,0,0,0,0,0,0,0,0,0],"id":2,"left_children":[1,3,5,7,9,11,13,-1,15,17,19,21,23,-1,25,-1,-1,-1,-1,-1,-1,-1,-1,-1,-1,-1,-1],"loss_changes":[2.7728167E-1,6.436744E-2,1.5545394E-1,1.829788E-2,9.138198E-4,7.3782794E-2,2.5437951E-2,0E0,3.0083284E-3,5.328853E-6,1.3341016E-5,3.0477006E-2,5.344264E-4,0E0,2.5663123E-2,0E0,0E0,0E0,0E0,0E0,0E0,0E0,0E0,0E0,0E0,0E0,0E0],"parents":[2147483647,0,0,1,1,2,2,3,3,4,4,5,5,6,6,8,8,9,9,10,10,11,11,12,12,14,14],"right_children":[2,4,6,8,10,12,14,-1,16,18,20,22,24,-1,26,-1,-1,-1,-1,-1,-1,-1,-1,-1,-1,-1,-1],"split_conditions":[-3.2863166E-2,-7.445033E7,-1.8422707E8,-4.934977E0,-4.1900728E-2,7.7999535E0,-2.2544254E-2,3.9530336E-3,-2.4396103E-2,2.9698193E2,2.90925E2,7.4571714E-2,7.895103E1,-0E0,2.2252785E-2,-0E0,1.7449486E-3,-0E0,3.6715285E-4,-0E0,-7.8017154E-5,1.4794562E-3,-0E0,-1.0831519E-3,-0E0,-1.8531637E-3,-3.821212E-4],"split_indices":[37,34,34,9,36,22,37,0,1,7,2,48,17,0,30,0,0,0,0,0,0,0,0,0,0,0,0],"split_type":[0,0,0,0,0,0,0,0,0,0,0,0,0,0,0,0,0,0,0,0,0,0,0,0,0,0,0],"sum_hessian":[2.09E2,4E1,1.69E2,2.9E1,1.1E1,7.4E1,9.5E1,1.3E1,1.6E1,6E0,5E0,5.4E1,2E1,9E0,8.6E1,1E0,1.5E1,1E0,5E0,1E0,4E0,3.7E1,1.7E1,1.9E1,1E0,6.6E1,2E1],"tree_param":{"num_deleted":"0","num_feature":"55","num_nodes":"27","size_leaf_vector":"1"}},{"base_weights":[2.3285726E-3,9.136415E-2,-1.0543762E-2,3.7479967E-2,3.974722E-3,8.3149284E-2,-2.1227328E-2,4.3472655E-2,-0E0,-0E0,2.702934E-3,3.6675517E-2,-2.8322415E-2,-0E0,1.463585E-3,1.2271905E-3,-0E0,-1.1064175E-3,3.8097237E-4],"categories":[],"categories_nodes":[],"categories_segments":[],"categories_sizes":[],"default_left":[0,0,0,0,0,0,0,0,0,0,0,0,0,0,0,0,0,0,0],"id":3,"left_children":[1,3,5,7,-1,9,11,13,-1,-1,-1,15,17,-1,-1,-1,-1,-1,-1],"loss_changes":[2.6233253E-1,4.230328E-2,1.8876117E-1,3.4971144E-3,0E0,6.637156E-3,7.209794E-2,1.6126577E-3,0E0,0E0,0E0,8.882582E-4,5.835539E-2,0E0,0E0,0E0,0E0,0E0,0E0],"parents":[2147483647,0,0,1,1,2,2,3,3,5,5,6,6,7,7,11,11,12,12],"right_children":[2,4,6,8,-1,10,12,14,-1,-1,-1,16,18,-1,-1,-1,-1,-1,-1],"split_conditions":[-4.7098853E-2,2.8635925E2,-2.7621872E8,2.89975E2,3.974722E-3,3.0475166E1,2.6341873E2,-6.043582E0,-0E0,-0E0,2.702934E-3,2.614625E2,2.854822E-2,-0E0,1.463585E-3,1.2271905E-3,-0E0,-1.1064175E-3,3.8097237E-4],"split_indices":[37,5,34,2,0,35,7,20,0,0,0,3,28,0,0,0,0,0,0],"split_type":[0,0,0,0,0,0,0,0,0,0,0,0,0,0,0,0,0,0,0],"sum_hessian":[2.2E2,2.8E1,1.92E2,1.4E1,1.4E1,1.8E1,1.74E2,1.2E1,2E0,2E0,1.6E1,1.7E1,1.57E2,2E0,1E1,1.4E1,3E0,1.32E2,2.5E1],"tree_param":{"num_deleted":"0","num_feature":"55","num_nodes":"19","size_leaf_vector":"1"}},{"base_weights":[8.9831743E-4,8.782637E-2,-1.2080022E-2,3.6954828E-2,3.8087626E-3,5.8433324E-2,-2.4964936E-2,4.244445E-2,-0E0,-0E0,7.3984705E-2,-3.2234203E-2,9.740037E-3,-0E0,1.414314E-3,-0E0,2.3318506E-3,4.5707103E-4,-1.1594178E-3,-1.2981748E-3,1.0270014E-3],"categories":[],"categories_nodes":[],"categories_segments":[],"categories_sizes":[],"default_left":[0,0,0,0,0,0,0,0,0,0,0,0,0,0,0,0,0,0,0,0,0],"id":4,"left_children":[1,3,5,7,-1,9,11,13,-1,-1,15,17,19,-1,-1,-1,-1,-1,-1,-1,-1],"loss_changes":[2.6811737E-1,4.0629387E-2,1.7982364E-1,3.3708885E-3,0E0,3.4409806E-2,4.5703202E-2,1.4490169E-3,0E0,0E0,2.1156073E-3,4.6767488E-2,3.6934167E-2,0E0,0E0,0E0,0E0,0E0,0E0,0E0,0E0],"parents":[2147483647,0,0,1,1,2,2,3,3,5,5,6,6,7,7,10,10,11,11,12,12],"right_children":[2,4,6,8,-1,10,12,14,-1,-1,16,18,20,-1,-1,-1,-1,-1,-1,-1,-1],"split_conditions":[-4.541291E-2,2.8635925E2,-2.6237886E8,2.96433E2,3.8087626E-3,-3.836841E-2,2.7919598E-2,-6.043582E0,-0E0,-0E0,2.4894576E2,2.634825E2,2.4641203E2,-0E0,1.414314E-3,-0E0,2.3318506E-3,4.5707103E-4,-1.1594178E-3,-1.2981748E-3,1.0270014E-3],"split_indices":[37,5,34,4,0,47,28,20,0,0,5,24,23,0,0,0,0,0,0,0,0],"split_type":[0,0,0,0,0,0,0,0,0,0,0,0,0,0,0,0,0,0,0,0,0],"sum_hessian":[2.29E2,3E1,1.99E2,1.5E1,1.5E1,2.9E1,1.7E2,1.3E1,2E0,5E0,2.4E1,1.43E2,2.7E1,2E0,1.1E1,2E0,2.2E1,1.5E1,1.28E2,7E0,2E1],"tree_param":{"num_deleted":"0","num_feature":"55","num_nodes":"21","size_leaf_vector":"1"}},{"base_weights":[8.2417147E-4,8.624983E-2,-1.1671022E-2,3.734156E-2,3.877876E-3,6.2303834E-2,-2.5864804E-2,4.251677E-2,-0E0,7.6372474E-2,-0E0,-1.5821465E-3,-3.692109E-2,-0E0,1.4059726E-3,-0E0,2.586043E-3,5.261502E-4,-1.007008E-3,8.632971E-5,-1.4040489E-3],"categories":[],"categories_nodes":[],"categories_segments":[],"categories_sizes":[],"default_left":[0,0,0,0,0,0,0,0,0,0,0,0,0,0,0,0,0,0,0,0,0],"id":5,"left_children":[1,3,5,7,-1,9,11,13,-1,15,-1,17,19,-1,-1,-1,-1,-1,-1,-1,-1],"loss_changes":[2.5823846E-1,4.3726727E-2,2.1216409E-1,3.4104716E-3,0E0,3.326784E-2,4.2537615E-2,1.4380552E-3,0E0,1.3421416E-2,0E0,3.7662324E-2,5.014214E-2,0E0,0E0,0E0,0E0,0E0,0E0,0E0,0E0],"parents":[2147483647,0,0,1,1,2,2,3,3,5,5,6,6,7,7,9,9,11,11,12,12],"right_children":[2,4,6,8,-1,10,12,14,-1,16,-1,18,20,-1,-1,-1,-1,-1,-1,-1,-1],"split_conditions":[-4.541291E-2,2.8635925E2,-2.6237886E8,2.89975E2,3.877876E-3,1.979672E-2,-1.8357552E8,-6.043582E0,-0E0,2.5086E2,-0E0,7.7999535E0,-2.6059588E-2,-0E0,1.4059726E-3,-0E0,2.586043E-3,5.261502E-4,-1.007008E-3,8.632971E-5,-1.4040489E-3],"split_indices":[37,5,34,2,0,28,34,20,0,5,0,22,37,0,0,0,0,0,0,0,0],"split_type":[0,0,0,0,0,0,0,0,0,0,0,0,0,0,0,0,0,0,0,0,0],"sum_hessian":[2.33E2,3E1,2.03E2,1.6E1,1.4E1,3.1E1,1.72E2,1.4E1,2E0,2.6E1,5E0,5.7E1,1.15E2,2E0,1.2E1,4E0,2.2E1,3.4E1,2.3E1,2.1E1,9.4E1],"tree_param":{"num_deleted":"0","num_feature":"55","num_nodes":"21","size_leaf_vector":"1"}},{"base_weights":[2.6203E-3,8.389143E-2,-8.3012665E-3,3.0460838E-2,3.538155E-3,6.4443946E-2,-2.2787688E-2,3.6266904E-2,-0E0,8.6117946E-2,1.4616945E-2,-0E0,-3.409658E-2,1.1756768E-3,-0E0,-0E0,2.7605463E-3,-0E0,8.0838165E-4,4.0773113E-4,-8.837856E-4,-0E0,-1.3037923E-3],"categories":[],"categories_nodes":[],"categories_segments":[],"categories_sizes":[],"default_left":[0,0,0,0,0,0,0,0,0,0,0,0,0,0,0,0,0,0,0,0,0,0,0],"id":6,"left_children":[1,3,5,7,-1,9,11,13,-1,15,17,19,21,-1,-1,-1,-1,-1,-1,-1,-1,-1,-1],"loss_changes":[2.0175396E-1,3.0684784E-2,1.9963592E-1,2.4059564E-3,0E0,2.2146195E-2,4.0272556E-2,8.897828E-4,0E0,4.0863007E-3,3.244858E-3,2.3508623E-2,3.803677E-2,0E0,0E0,0E0,0E0,0E0,0E0,0E0,0E0,0E0,0E0],"parents":[2147483647,0,0,1,1,2,2,3,3,5,5,6,6,7,7,9,9,10,10,11,11,12,12],"right_children":[2,4,6,8,-1,10,12,14,-1,16,18,20,22,-1,-1,-1,-1,-1,-1,-1,-1,-1,-1],"split_conditions":[-4.541291E-2,2.863005E2,-2.6271006E8,2.89975E2,3.538155E-3,1.6875528E-2,-1.8422707E8,8.677173E-3,-0E0,2.5086E2,2.630105E2,7.7999535E0,-2.6059588E-2,1.1756768E-3,-0E0,-0E0,2.7605463E-3,-0E0,8.0838165E-4,4.0773113E-4,-8.837856E-4,-0E0,-1.3037923E-3],"split_indices":[37,5,34,2,0,29,34,0,0,5,5,22,37,0,0,0,0,0,0,0,0,0,0],"split_type":[0,0,0,0,0,0,0,0,0,0,0,0,0,0,0,0,0,0,0,0,0,0,0],"sum_hessian":[2.17E2,2.6E1,1.91E2,1.2E1,1.4E1,3E1,1.61E2,1E1,2E0,1.9E1,1.1E1,5.5E1,1.06E2,9E0,1E0,2E0,1.7E1,4E0,7E0,3.7E1,1.8E1,2.1E1,8.5E1],"tree_param":{"num_deleted":"0","num_feature":"55","num_nodes":"23","size_leaf_vector":"1"}},{"base_weights":[-8.042514E-4,2.3743557E-2,-3.618501E-2,7.9786785E-2,-2.774653E-3,-5.565379E-2,-2.5118971E-3,4.3918464E-2,1.10509865E-1,-2.412061E-2,4.0256705E-2,-6.802382E-2,-1.6664078E-2,1.5056087E-2,-1.436974E-2,1.573403E-3,-0E0,3.5904825E-3,4.981322E-4,2.2676823E-4,-1.0222184E-3,1.4150301E-3,-0E0,-0E0,-2.1826352E-3,-0E0,-6.1956095E-4,-0E0,5.287779E-4,-0E0,-6.311666E-4],"categories":[],"categories_nodes":[],"categories_segments":[],"categories_sizes":[],"default_left":[0,0,0,0,0,0,0,0,0,0,0,0,0,0,0,0,0,0,0,0,0,0,0,0,0,0,0,0,0,0,0],"id":7,"left_children":[1,3,5,7,9,11,13,15,17,19,21,23,25,27,29,-1,-1,-1,-1,-1,-1,-1,-1,-1,-1,-1,-1,-1,-1,-1,-1],"loss_changes":[1.9491479E-1,2.0112419E-1,5.5012055E-2,2.7089119E-2,8.018941E-2,1.7888978E-2,7.855497E-3,5.148817E-3,2.473116E-3,2.2143416E-2,1.0242868E-2,1.671867E-2,8.2382746E-4,3.8650515E-4,1.7134324E-3,0E0,0E0,0E0,0E0,0E0,0E0,0E0,0E0,0E0,0E0,0E0,0E0,0E0,0E0,0E0,0E0],"parents":[2147483647,0,0,1,1,2,2,3,3,4,4,5,5,6,6,7,7,8,8,9,9,10,10,11,11,12,12,13,13,14,14],"right_children":[2,4,6,8,10,12,14,16,18,20,22,24,26,28,30,-1,-1,-1,-1,-1,-1,-1,-1,-1,-1,-1,-1,-1,-1,-1,-1],"split_conditions":[2.931665E2,1.545136E-2,2.99303E2,2.7294E2,2.77115E2,2.2904173E-2,3.946568E1,2.6639E2,2.8892E2,1.6309861E-2,3.7E1,2.83812E2,-1.2628781E-2,3.0036E2,4.6282887E1,1.573403E-3,-0E0,3.5904825E-3,4.981322E-4,2.2676823E-4,-1.0222184E-3,1.4150301E-3,-0E0,-0E0,-2.1826352E-3,-0E0,-6.1956095E-4,-0E0,5.287779E-4,-0E0,-6.311666E-4],"split_indices":[7,29,4,4,4,30,15,4,3,29,19,4,46,3,16,0,0,0,0,0,0,0,0,0,0,0,0,0,0,0,0],"split_type":[0,0,0,0,0,0,0,0,0,0,0,0,0,0,0,0,0,0,0,0,0,0,0,0,0,0,0,0,0,0,0],"sum_hessian":[2.21E2,1.29E2,9.2E1,4.2E1,8.7E1,5.6E1,3.6E1,2.2E1,2E1,6E1,2.7E1,4E1,1.6E1,1.1E1,2.5E1,1.7E1,5E0,1.7E1,3E0,1.2E1,4.8E1,2.4E1,3E0,2E0,3.8E1,4E0,1.2E1,2E0,9E0,1E1,1.5E1],"tree_param":{"num_deleted":"0","num_feature":"55","num_nodes":"31","size_leaf_vector":"1"}},{"base_weights":[9.626031E-4,2.3626952E-2,-3.3990633E-2,5.899172E-2,-1.3795626E-2,-4.1641325E-2,1.187303E-3,3.291399E-2,8.5783154E-2,-2.6772575E-2,2.917394E-2,-5.541665E-2,-1.3951815E-2,6.3831534E-4,-1.2478726E-2,1.3472534E-3,8.638887E-6,3.0286286E-3,2.1762993E-5,-0E0,-1.0672127E-3,1.0002961E-3,-0E0,-1.8733755E-3,-0E0,-0E0,-5.753739E-4,-4.277435E-4,-0E0],"categories":[],"categories_nodes":[],"categories_segments":[],"categories_sizes":[],"default_left":[0,0,0,0,0,0,0,0,0,0,0,0,0,0,0,0,0,0,0,0,0,0,0,0,0,0,0,0,0],"id":8,"left_children":[1,3,5,7,9,11,13,15,17,19,21,23,25,-1,27,-1,-1,-1,-1,-1,-1,-1,-1,-1,-1,-1,-1,-1,-1],"loss_changes":[1.7563342E-1,1.8664481E-1,2.7240492E-2,3.561032E-2,3.7343442E-2,2.0134524E-2,4.9890405E-3,1.1120688E-2,3.234279E-2,1.51618235E-2,2.5373362E-3,1.8612638E-2,1.1708145E-3,0E0,8.215796E-5,0E0,0E0,0E0,0E0,0E0,0E0,0E0,0E0,0E0,0E0,0E0,0E0,0E0,0E0],"parents":[2147483647,0,0,1,1,2,2,3,3,4,4,5,5,6,6,7,7,8,8,9,9,10,10,11,11,12,12,14,14],"right_children":[2,4,6,8,10,12,14,16,18,20,22,24,26,-1,28,-1,-1,-1,-1,-1,-1,-1,-1,-1,-1,-1,-1,-1,-1],"split_conditions":[2.9107E2,1.603895E7,1.9904906E-2,2.6522375E2,2.75487E2,2.98769E2,2.7754175E2,1.5035604E7,2.88825E2,1.677132E-2,2.8593E2,1.567869E0,4.6282887E1,6.3831534E-4,2.882725E2,1.3472534E-3,8.638887E-6,3.0286286E-3,2.1762993E-5,-0E0,-1.0672127E-3,1.0002961E-3,-0E0,-1.8733755E-3,-0E0,-0E0,-5.753739E-4,-4.277435E-4,-0E0],"split_indices":[2,32,28,5,4,4,5,32,2,29,4,10,16,0,3,0,0,0,0,0,0,0,0,0,0,0,0,0,0],"split_type":[0,0,0,0,0,0,0,0,0,0,0,0,0,0,0,0,0,0,0,0,0,0,0,0,0,0,0,0,0],"sum_hessian":[2.21E2,1.36E2,8.5E1,7.1E1,6.5E1,7.2E1,1.3E1,3.9E1,3.2E1,5.2E1,1.3E1,4.5E1,2.7E1,8E0,5E0,2.6E1,1.3E1,2.6E1,6E0,1.1E1,4.1E1,1.2E1,1E0,4E1,5E0,1E1,1.7E1,4E0,1E0],"tree_param":{"num_deleted":"0","num_feature":"55","num_nodes":"29","size_leaf_vector":"1"}},{"base_weights":[9.533862E-5,5.8653142E-2,-1.3512567E-2,3.1819016E-2,3.3750688E-3,5.6842446E-2,-2.3166534E-2,3.947858E-2,-0E0,6.7341395E-2,-0E0,-6.0268375E-3,-4.163489E-2,-0E0,1.2528191E-3,2.1002963E-3,-0E0,-1.2172852E-3,2.0219946E-4,-1.7293495E-3,-3.2410593E-4],"categories":[],"categories_nodes":[],"categories_segments":[],"categories_sizes":[],"default_left":[0,0,0,0,0,0,0,0,0,0,0,0,0,0,0,0,0,0,0,0,0],"id":9,"left_children":[1,3,5,7,-1,9,11,13,-1,15,-1,17,19,-1,-1,-1,-1,-1,-1,-1,-1],"loss_changes":[1.8459766E-1,4.5567945E-2,1.2156456E-1,8.124124E-3,0E0,1.37752E-2,4.6262704E-2,3.0762553E-3,0E0,1.6959757E-3,0E0,4.2472597E-2,2.9553369E-2,0E0,0E0,0E0,0E0,0E0,0E0,0E0,0E0],"parents":[2147483647,0,0,1,1,2,2,3,3,5,5,6,6,7,7,9,9,11,11,12,12],"right_children":[2,4,6,8,-1,10,12,14,-1,16,-1,18,20,-1,-1,-1,-1,-1,-1,-1,-1],"split_conditions":[-3.2863166E-2,2.8635925E2,-2.6237886E8,4.4639954E1,3.3750688E-3,1.979672E-2,2.8694174E2,2.4426225E2,-0E0,2.9048993E2,-0E0,2.4731625E2,2.98769E2,-0E0,1.2528191E-3,2.1002963E-3,-0E0,-1.2172852E-3,2.0219946E-4,-1.7293495E-3,-3.2410593E-4],"split_indices":[37,5,34,35,0,28,8,5,0,25,0,5,4,0,0,0,0,0,0,0,0],"split_type":[0,0,0,0,0,0,0,0,0,0,0,0,0,0,0,0,0,0,0,0,0],"sum_hessian":[2.24E2,4.3E1,1.81E2,3.1E1,1.2E1,2E1,1.61E2,2.5E1,6E0,1.7E1,3E0,8.7E1,7.4E1,1E0,2.4E1,1.6E1,1E0,2.5E1,6.2E1,4.6E1,2.8E1],"tree_param":{"num_deleted":"0","num_feature":"55","num_nodes":"21","size_leaf_vector":"1"}},{"base_weights":[-0E0,2.1207746E-2,-3.3298153E-2,5.750994E-2,-1.5008505E-2,-4.213255E-2,1.2338187E-3,3.470164E-2,8.8257246E-2,-3.1934906E-2,1.6008249E-2,-5.650732E-2,-1.5832642E-2,5.830493E-4,-9.1718575E-3,1.3657253E-3,-0E0,3.1042353E-3,-0E0,-0E0,-1.0607329E-3,-0E0,8.0471276E-4,-1.9188038E-3,-0E0,-0E0,-6.420522E-4,-3.3908474E-4,-0E0],"categories":[],"categories_nodes":[],"categories_segments":[],"categories_sizes":[],"default_left":[0,0,0,0,0,0,0,0,0,0,0,0,0,0,0,0,0,0,0,0,0,0,0,0,0,0,0,0,0],"id":10,"left_children":[1,3,5,7,9,11,13,15,17,19,21,23,25,-1,27,-1,-1,-1,-1,-1,-1,-1,-1,-1,-1,-1,-1,-1,-1],"loss_changes":[1.6500546E-1,1.9574906E-1,3.159809E-2,3.6537185E-2,3.990403E-2,1.9847423E-2,4.4242884E-3,1.2997489E-2,3.107649E-2,7.5358115E-3,5.361889E-3,1.585655E-2,1.1824793E-3,0E0,9.353936E-5,0E0,0E0,0E0,0E0,0E0,0E0,0E0,0E0,0E0,0E0,0E0,0E0,0E0,0E0],"parents":[2147483647,0,0,1,1,2,2,3,3,4,4,5,5,6,6,7,7,8,8,9,9,10,10,11,11,12,12,14,14],"right_children":[2,4,6,8,10,12,14,16,18,20,22,24,26,-1,28,-1,-1,-1,-1,-1,-1,-1,-1,-1,-1,-1,-1,-1,-1],"split_conditions":[2.9107E2,1.582286E7,1.8512791E-2,2.6592325E2,2.590635E2,2.97974E2,-3.5980784E7,1.5035604E7,-8.171712E7,1.6090266E-2,6.0089035E1,2.921115E2,4.705483E1,5.830493E-4,1.627418E1,1.3657253E-3,-0E0,3.1042353E-3,-0E0,-0E0,-1.0607329E-3,-0E0,8.0471276E-4,-1.9188038E-3,-0E0,-0E0,-6.420522E-4,-3.3908474E-4,-0E0],"split_indices":[2,32,28,5,5,4,34,32,34,29,35,5,16,0,14,0,0,0,0,0,0,0,0,0,0,0,0,0,0],"split_type":[0,0,0,0,0,0,0,0,0,0,0,0,0,0,0,0,0,0,0,0,0,0,0,0,0,0,0,0,0],"sum_hessian":[2.33E2,1.44E2,8.9E1,7.3E1,7.1E1,7.3E1,1.6E1,4.5E1,2.8E1,4.8E1,2.3E1,4.4E1,2.9E1,9E0,7E0,3.2E1,1.3E1,2.3E1,5E0,3E0,4.5E1,8E0,1.5E1,3.8E1,6E0,1.1E1,1.8E1,5E0,2E0],"tree_param":{"num_deleted":"0","num_feature":"55","num_nodes":"29","size_leaf_vector":"1"}},{"base_weights":[-1.5562236E-3,1.865526E-2,-3.512937E-2,5.7432618E-2,-1.7785342E-2,-4.6789322E-2,-6.9834176E-3,2.78565E-2,9.541825E-2,-3.0890366E-2,1.4778077E-2,1.7199965E-4,-5.4011803E-2,2.7599824E-3,-1.6018776E-2,-0E0,1.1380538E-3,3.066316E-3,1.7430018E-4,-0E0,-1.0756728E-3,8.3638524E-4,-0E0,-1.8041449E-3,-0E0,-0E0,1.6075202E-4,-5.403266E-4,-0E0],"categories":[],"categories_nodes":[],"categories_segments":[],"categories_sizes":[],"default_left":[0,0,0,0,0,0,0,0,0,0,0,0,0,0,0,0,0,0,0,0,0,0,0,0,0,0,0,0,0],"id":11,"left_children":[1,3,5,7,9,11,13,15,17,19,21,-1,23,25,27,-1,-1,-1,-1,-1,-1,-1,-1,-1,-1,-1,-1,-1,-1],"loss_changes":[1.4819382E-1,1.9292453E-1,2.1534957E-2,5.916339E-2,3.1086346E-2,2.6380777E-2,3.8350741E-3,9.254687E-3,5.0375015E-3,1.0474291E-2,4.618889E-3,0E0,1.3965949E-2,1.03717226E-4,3.8264086E-4,0E0,0E0,0E0,0E0,0E0,0E0,0E0,0E0,0E0,0E0,0E0,0E0,0E0,0E0],"parents":[2147483647,0,0,1,1,2,2,3,3,4,4,5,5,6,6,7,7,8,8,9,9,10,10,12,12,13,13,14,14],"right_children":[2,4,6,8,10,12,14,16,18,20,22,-1,24,26,28,-1,-1,-1,-1,-1,-1,-1,-1,-1,-1,-1,-1,-1,-1],"split_conditions":[2.9107E2,6.6664066E0,2.98769E2,2.6592325E2,2.590635E2,2.83812E2,3.8830288E1,-5.8513594E-1,-7.7565944E7,1.6090266E-2,5.361011E-2,1.7199965E-4,2.9187274E2,2.7082657E1,2.8278326E2,-0E0,1.1380538E-3,3.066316E-3,1.7430018E-4,-0E0,-1.0756728E-3,8.3638524E-4,-0E0,-1.8041449E-3,-0E0,-0E0,1.6075202E-4,-5.403266E-4,-0E0],"split_indices":[2,22,4,5,5,4,16,10,34,29,48,0,5,14,5,0,0,0,0,0,0,0,0,0,0,0,0,0,0],"split_type":[0,0,0,0,0,0,0,0,0,0,0,0,0,0,0,0,0,0,0,0,0,0,0,0,0,0,0,0,0],"sum_hessian":[2.14E2,1.32E2,8.2E1,6.5E1,6.7E1,5.5E1,2.7E1,3.9E1,2.6E1,5E1,1.7E1,5E0,5E1,8E0,1.9E1,1.2E1,2.7E1,2.3E1,3E0,5E0,4.5E1,1E1,7E0,4.4E1,6E0,3E0,5E0,1.6E1,3E0],"tree_param":{"num_deleted":"0","num_feature":"55","num_nodes":"29","size_leaf_vector":"1"}},{"base_weights":[3.8377128E-3,8.124742E-2,-5.593469E-3,1.01284504E-1,1.350806E-2,5.3774044E-2,-1.819184E-2,-0E0,3.129341E-3,-0E0,5.178831E-4,-0E0,6.8639636E-2,-9.787944E-3,-4.797119E-2,-0E0,2.153247E-3,-9.2275563E-4,-5.0663446E-5,-1.7419159E-4,-1.7169501E-3],"categories":[],"categories_nodes":[],"categories_segments":[],"categories_sizes":[],"default_left":[0,0,0,0,0,0,0,0,0,0,0,0,0,0,0,0,0,0,0,0,0],"id":12,"left_children":[1,3,5,7,9,11,13,-1,-1,-1,-1,-1,15,17,19,-1,-1,-1,-1,-1,-1],"loss_changes":[1.6790408E-1,2.1085069E-2,1.4326717E-1,3.207326E-4,3.2827782E-4,3.1783402E-2,3.4547336E-2,0E0,0E0,0E0,0E0,0E0,1.5831143E-3,1.8952906E-2,6.249279E-3,0E0,0E0,0E0,0E0,0E0,0E0],"parents":[2147483647,0,0,1,1,2,2,3,3,4,4,5,5,6,6,12,12,13,13,14,14],"right_children":[2,4,6,8,10,12,14,-1,-1,-1,-1,-1,16,18,20,-1,-1,-1,-1,-1,-1],"split_conditions":[-4.541291E-2,-3.2509127E0,-2.6237886E8,2.5067775E2,2.5801E2,-3.836841E-2,1.0667838E-1,-0E0,3.129341E-3,-0E0,5.178831E-4,-0E0,2.4894576E2,1.6537135E-2,1.3302804E0,-0E0,2.153247E-3,-9.2275563E-4,-5.0663446E-5,-1.7419159E-4,-1.7169501E-3],"split_indices":[37,11,34,5,2,47,48,0,0,0,0,0,5,30,11,0,0,0,0,0,0],"split_type":[0,0,0,0,0,0,0,0,0,0,0,0,0,0,0,0,0,0,0,0,0],"sum_hessian":[2.18E2,2.4E1,1.94E2,1.7E1,7E0,3.2E1,1.62E2,1E0,1.6E1,2E0,5E0,6E0,2.6E1,1.3E2,3.2E1,2E0,2.4E1,3.2E1,9.8E1,8E0,2.4E1],"tree_param":{"num_deleted":"0","num_feature":"55","num_nodes":"21","size_leaf_vector":"1"}},{"base_weights":[3.6591705E-4,7.734604E-2,-6.4832703E-3,2.7808405E-3,-0E0,4.4063766E-2,-1.9308433E-2,-0E0,5.5005476E-2,2.09887E-4,-2.8234493E-2,-0E0,1.8755009E-3,-2.9481514E-4,8.8839675E-4,-0E0,-1.1109805E-3],"categories":[],"categories_nodes":[],"categories_segments":[],"categories_sizes":[],"default_left":[0,0,0,0,0,0,0,0,0,0,0,0,0,0,0,0,0],"id":13,"left_children":[1,3,5,-1,-1,7,9,-1,11,13,15,-1,-1,-1,-1,-1,-1],"loss_changes":[1.2200125E-1,1.5218787E-2,1.2738177E-1,0E0,0E0,1.8070675E-2,3.0858092E-2,0E0,7.82308E-3,1.6435524E-2,2.8434247E-2,0E0,0E0,0E0,0E0,0E0,0E0],"parents":[2147483647,0,0,1,1,2,2,5,5,6,6,8,8,9,9,10,10],"right_children":[2,4,6,-1,-1,8,10,-1,12,14,16,-1,-1,-1,-1,-1,-1],"split_conditions":[-4.934977E0,2.8317E2,-2.6237886E8,2.7808405E-3,-0E0,-3.836841E-2,-2.0022909E8,-0E0,2.5031175E2,1.1046274E0,-6.655373E-1,-0E0,1.8755009E-3,-2.9481514E-4,8.8839675E-4,-0E0,-1.1109805E-3],"split_indices":[9,2,34,0,0,47,34,0,5,10,10,0,0,0,0,0,0],"split_type":[0,0,0,0,0,0,0,0,0,0,0,0,0,0,0,0,0],"sum_hessian":[2.16E2,1.8E1,1.98E2,1.4E1,4E0,3.8E1,1.6E2,8E0,3E1,4.7E1,1.13E2,5E0,2.5E1,3.3E1,1.4E1,2.7E1,8.6E1],"tree_param":{"num_deleted":"0","num_feature":"55","num_nodes":"17","size_leaf_vector":"1"}},{"base_weights":[6.7236315E-4,7.045537E-2,-8.67221E-3,8.7393865E-2,-0E0,5.019145E-2,-1.7624924E-2,-0E0,2.816928E-3,6.275054E-2,-0E0,-0E0,-2.7596079E-2,2.0045256E-3,-0E0,-0E0,6.7382454E-5,-3.5848335E-4,9.555314E-4,8.474672E-5,-1.0222429E-3],"categories":[],"categories_nodes":[],"categories_segments":[],"categories_sizes":[],"default_left":[0,0,0,0,0,0,0,0,0,0,0,0,0,0,0,0,0,0,0,0,0],"id":14,"left_children":[1,3,5,7,-1,9,11,-1,-1,13,15,17,19,-1,-1,-1,-1,-1,-1,-1,-1],"loss_changes":[1.4829339E-1,2.6364535E-2,9.828295E-2,7.127017E-3,0E0,1.0416988E-2,2.9297989E-2,0E0,0E0,5.020529E-3,2.5224417E-5,2.381462E-2,2.430965E-2,0E0,0E0,0E0,0E0,0E0,0E0,0E0,0E0],"parents":[2147483647,0,0,1,1,2,2,3,3,5,5,6,6,9,9,10,10,11,11,12,12],"right_children":[2,4,6,8,-1,10,12,-1,-1,14,16,18,20,-1,-1,-1,-1,-1,-1,-1,-1],"split_conditions":[-4.541291E-2,1.4933574E-2,-2.6237886E8,-1.4857726E0,-0E0,1.5513625E7,-1.866298E8,-0E0,2.816928E-3,6.6664066E0,-1.3701037E-2,1.1130452E0,-2.186744E0,2.0045256E-3,-0E0,-0E0,6.7382454E-5,-3.5848335E-4,9.555314E-4,8.474672E-5,-1.0222429E-3],"split_indices":[37,29,34,10,0,32,34,0,0,22,42,10,9,0,0,0,0,0,0,0,0],"split_type":[0,0,0,0,0,0,0,0,0,0,0,0,0,0,0,0,0,0,0,0,0],"sum_hessian":[2.16E2,2.6E1,1.9E2,2E1,6E0,2.3E1,1.67E2,2E0,1.8E1,1.7E1,6E0,6.1E1,1.06E2,1.6E1,1E0,2E0,4E0,4.5E1,1.6E1,1.6E1,9E1],"tree_param":{"num_deleted":"0","num_feature":"55","num_nodes":"21","size_leaf_vector":"1"}},{"base_weights":[4.886046E-4,1.7890297E-2,-2.7285678E-2,-4.814207E-3,6.2630944E-2,-0E0,-3.8898572E-2,2.6387949E-2,-2.8392801E-2,2.507152E-3,3.0490419E-2,8.471371E-3,-9.293387E-3,-4.5646455E-2,-1.4567968E-3,9.725027E-4,-0E0,-9.115328E-4,-0E0,1.0095245E-3,-0E0,3.835175E-4,-0E0,-0E0,-3.1226708E-4,-0E0,-1.4546607E-3,-0E0,-9.122459E-5],"categories":[],"categories_nodes":[],"categories_segments":[],"categories_sizes":[],"default_left":[0,0,0,0,0,0,0,0,0,0,0,0,0,0,0,0,0,0,0,0,0,0,0,0,0,0,0,0,0],"id":15,"left_children":[1,3,5,7,9,11,13,15,17,-1,19,21,23,25,27,-1,-1,-1,-1,-1,-1,-1,-1,-1,-1,-1,-1,-1,-1],"loss_changes":[1.0346231E-1,1.4321811E-1,2.5941461E-2,6.642728E-2,1.7678902E-2,2.0411024E-3,9.624392E-3,4.7105607E-3,3.4346543E-3,0E0,3.3272803E-3,4.6615896E-4,1.5539327E-4,7.6051876E-3,5.775217E-5,0E0,0E0,0E0,0E0,0E0,0E0,0E0,0E0,0E0,0E0,0E0,0E0,0E0,0E0],"parents":[2147483647,0,0,1,1,2,2,3,3,4,4,5,5,6,6,7,7,8,8,10,10,11,11,12,12,13,13,14,14],"right_children":[2,4,6,8,10,12,14,16,18,-1,20,22,24,26,28,-1,-1,-1,-1,-1,-1,-1,-1,-1,-1,-1,-1,-1,-1],"split_conditions":[2.917997E2,2.6326724E2,-2.448901E-2,1.6309861E-2,4.416315E1,2.7956366E1,2.8962424E2,2.5491125E2,2.6152466E1,2.507152E-3,2.886205E2,-8.278867E1,-2.0140605E-2,2.69332E2,-1.6839843E-2,9.725027E-4,-0E0,-9.115328E-4,-0E0,1.0095245E-3,-0E0,3.835175E-4,-0E0,-0E0,-3.1226708E-4,-0E0,-1.4546607E-3,-0E0,-9.122459E-5],"split_indices":[7,5,47,29,17,18,5,23,12,0,5,21,45,5,46,0,0,0,0,0,0,0,0,0,0,0,0,0,0],"split_type":[0,0,0,0,0,0,0,0,0,0,0,0,0,0,0,0,0,0,0,0,0,0,0,0,0,0,0,0,0],"sum_hessian":[2.14E2,1.34E2,8E1,8.8E1,4.6E1,2.4E1,5.6E1,3.6E1,5.2E1,2.5E1,2.1E1,1.3E1,1.1E1,4.5E1,1.1E1,2.8E1,8E0,4.9E1,3E0,2E1,1E0,8E0,5E0,1E0,1E1,2E0,4.3E1,3E0,8E0],"tree_param":{"num_deleted":"0","num_feature":"55","num_nodes":"29","size_leaf_vector":"1"}},{"base_weights":[-1.4838397E-3,6.4579375E-2,-1.146274E-2,2.2919513E-3,-0E0,3.909919E-2,-2.1167716E-2,-0E0,4.9929228E-2,-2.7992021E-2,8.517585E-3,1.5456047E-3,-0E0,-2.837448E-4,-1.1287114E-3,-8.9556386E-4,8.531877E-4],"categories":[],"categories_nodes":[],"categories_segments":[],"categories_sizes":[],"default_left":[0,0,0,0,0,0,0,0,0,0,0,0,0,0,0,0,0],"id":16,"left_children":[1,3,5,-1,-1,7,9,-1,11,13,15,-1,-1,-1,-1,-1,-1],"loss_changes":[1.3189091E-1,1.4138058E-2,8.834231E-2,0E0,0E0,1.4532428E-2,3.3586018E-2,0E0,1.0578483E-3,1.7964073E-2,2.1346575E-2,0E0,0E0,0E0,0E0,0E0,0E0],"parents":[2147483647,0,0,1,1,2,2,5,5,6,6,8,8,9,9,10,10],"right_children":[2,4,6,-1,-1,8,10,-1,12,14,16,-1,-1,-1,-1,-1,-1],"split_conditions":[-4.541291E-2,6.323084E0,-2.6237886E8,2.2919513E-3,-0E0,-3.9839245E-2,2.7919598E-2,-0E0,2.9048993E2,2.950202E2,2.4569211E2,1.5456047E-3,-0E0,-2.837448E-4,-1.1287114E-3,-8.9556386E-4,8.531877E-4],"split_indices":[37,22,34,0,0,47,28,0,25,25,23,0,0,0,0,0,0],"split_type":[0,0,0,0,0,0,0,0,0,0,0,0,0,0,0,0,0],"sum_hessian":[2.06E2,2.5E1,1.81E2,2E1,5E0,2.7E1,1.54E2,5E0,2.2E1,1.28E2,2.6E1,2.1E1,1E0,4.8E1,8E1,7E0,1.9E1],"tree_param":{"num_deleted":"0","num_feature":"55","num_nodes":"17","size_leaf_vector":"1"}},{"base_weights":[2.631126E-4,5.2994054E-2,-1.2033182E-2,2.9855033E-2,2.8386905E-3,1.0768834E-2,-3.1680804E-2,3.3603765E-2,-0E0,2.3896594E-2,-2.3496501E-2,-3.5503313E-2,4.2810827E-4,1.1002286E-3,-0E0,1.1107867E-3,-1.2909644E-5,-0E0,-7.350999E-4,-0E0,-1.1868671E-3],"categories":[],"categories_nodes":[],"categories_segments":[],"categories_sizes":[],"default_left":[0,0,0,0,0,0,0,0,0,0,0,0,0,0,0,0,0,0,0,0,0],"id":17,"left_children":[1,3,5,7,-1,9,11,13,-1,15,17,19,-1,-1,-1,-1,-1,-1,-1,-1,-1],"loss_changes":[1.4284194E-1,2.5183886E-2,7.948929E-2,3.7490595E-3,0E0,3.5688005E-2,1.9316532E-2,3.1363312E-3,0E0,2.2520322E-2,3.6613923E-4,1.3335168E-2,0E0,0E0,0E0,0E0,0E0,0E0,0E0,0E0,0E0],"parents":[2147483647,0,0,1,1,2,2,3,3,5,5,6,6,7,7,9,9,10,10,11,11],"right_children":[2,4,6,8,-1,10,12,14,-1,16,18,20,-1,-1,-1,-1,-1,-1,-1,-1,-1],"split_conditions":[-3.2863166E-2,2.8635925E2,-1.8422707E8,2.0864996E1,2.8386905E-3,7.7999535E0,9.495875E-2,8.081743E0,-0E0,7.4571714E-2,2.59835E2,-2.3347702E-2,4.2810827E-4,1.1002286E-3,-0E0,1.1107867E-3,-1.2909644E-5,-0E0,-7.350999E-4,-0E0,-1.1868671E-3],"split_indices":[37,5,34,13,0,22,46,22,0,48,2,46,0,0,0,0,0,0,0,0,0],"split_type":[0,0,0,0,0,0,0,0,0,0,0,0,0,0,0,0,0,0,0,0,0],"sum_hessian":[2.12E2,4.1E1,1.71E2,2.9E1,1.2E1,7.7E1,9.4E1,2.6E1,3E0,5.8E1,1.9E1,8.9E1,5E0,2.4E1,2E0,4E1,1.8E1,1E0,1.8E1,9E0,8E1],"tree_param":{"num_deleted":"0","num_feature":"55","num_nodes":"21","size_leaf_vector":"1"}},{"base_weights":[1.3945412E-3,1.9000286E-2,-2.7817791E-2,6.0493797E-2,-8.847688E-4,-0E0,-4.0218122E-2,7.557678E-2,1.2399839E-2,-1.7154269E-2,2.3025936E-2,1.2056249E-2,-5.020383E-3,-4.800822E-2,-5.162944E-3,1.2340983E-4,2.4490424E-3,4.469224E-4,-0E0,1.962947E-4,-7.850257E-4,1.0160541E-3,-1.9969474E-4,4.7285695E-4,-0E0,-0E0,-2.3070397E-4,-0E0,-1.5802993E-3,-1.8860016E-4,-0E0],"categories":[],"categories_nodes":[],"categories_segments":[],"categories_sizes":[],"default_left":[0,0,0,0,0,0,0,0,0,0,0,0,0,0,0,0,0,0,0,0,0,0,0,0,0,0,0,0,0,0,0],"id":18,"left_children":[1,3,5,7,9,11,13,15,17,19,21,23,25,27,29,-1,-1,-1,-1,-1,-1,-1,-1,-1,-1,-1,-1,-1,-1,-1,-1],"loss_changes":[1.1279388E-1,1.2152852E-1,3.113465E-2,2.4359033E-2,3.6375258E-2,2.0718928E-3,1.0273844E-2,5.8086365E-3,5.106111E-4,1.4735522E-2,1.4532622E-2,4.916992E-4,1.4544994E-4,7.277645E-3,1.0108302E-4,0E0,0E0,0E0,0E0,0E0,0E0,0E0,0E0,0E0,0E0,0E0,0E0,0E0,0E0,0E0,0E0],"parents":[2147483647,0,0,1,1,2,2,3,3,4,4,5,5,6,6,7,7,8,8,9,9,10,10,11,11,12,12,13,13,14,14],"right_children":[2,4,6,8,10,12,14,16,18,20,22,24,26,28,30,-1,-1,-1,-1,-1,-1,-1,-1,-1,-1,-1,-1,-1,-1,-1,-1],"split_conditions":[2.9237E2,1.545136E-2,-2.1687707E-2,5.9308624E1,2.633885E2,-3.5500634E-2,4.800613E6,2.5086E2,2.7396542E2,1.6309861E-2,2.888865E2,-8.278867E1,-6.655373E-1,-1.888696E0,3.1459E2,1.2340983E-4,2.4490424E-3,4.469224E-4,-0E0,1.962947E-4,-7.850257E-4,1.0160541E-3,-1.9969474E-4,4.7285695E-4,-0E0,-0E0,-2.3070397E-4,-0E0,-1.5802993E-3,-1.8860016E-4,-0E0],"split_indices":[3,29,37,35,5,36,34,5,8,29,5,21,10,9,3,0,0,0,0,0,0,0,0,0,0,0,0,0,0,0,0],"split_type":[0,0,0,0,0,0,0,0,0,0,0,0,0,0,0,0,0,0,0,0,0,0,0,0,0,0,0,0,0,0,0],"sum_hessian":[2.19E2,1.39E2,8E1,4.6E1,9.3E1,2.3E1,5.7E1,3.3E1,1.3E1,5.8E1,3.5E1,1.1E1,1.2E1,4.4E1,1.3E1,4E0,2.9E1,1.1E1,2E0,1.3E1,4.5E1,2.8E1,7E0,8E0,3E0,5E0,7E0,5E0,3.9E1,1.1E1,2E0],"tree_param":{"num_deleted":"0","num_feature":"55","num_nodes":"31","size_leaf_vector":"1"}},{"base_weights":[-0E0,1.7208826E-2,-2.476083E-2,-3.341269E-3,5.972359E-2,-4.0591255E-2,-4.868934E-5,2.2930274E-2,-2.62239E-2,8.051347E-2,2.8357834E-2,-4.766528E-2,-0E0,1.2329509E-2,-8.190465E-3,9.3337364E-4,3.2938606E-5,-1.6425193E-4,-1.0185187E-3,-0E0,2.4677378E-3,9.436654E-4,-0E0,-1.679381E-3,-0E0,-0E0,4.3282876E-4,-0E0,-3.630976E-4],"categories":[],"categories_nodes":[],"categories_segments":[],"categories_sizes":[],"default_left":[0,0,0,0,0,0,0,0,0,0,0,0,0,0,0,0,0,0,0,0,0,0,0,0,0,0,0,0,0],"id":19,"left_children":[1,3,5,7,9,11,13,15,17,19,21,23,-1,25,27,-1,-1,-1,-1,-1,-1,-1,-1,-1,-1,-1,-1,-1,-1],"loss_changes":[9.429066E-2,1.1941649E-1,3.153356E-2,5.323178E-2,1.552166E-2,1.4913604E-2,3.6175197E-3,3.7116017E-3,3.7272535E-3,4.8354268E-5,2.901487E-3,1.6841143E-2,0E0,2.0122272E-4,6.9137E-4,0E0,0E0,0E0,0E0,0E0,0E0,0E0,0E0,0E0,0E0,0E0,0E0,0E0,0E0],"parents":[2147483647,0,0,1,1,2,2,3,3,4,4,5,5,6,6,7,7,8,8,9,9,10,10,11,11,13,13,14,14],"right_children":[2,4,6,8,10,12,14,16,18,20,22,24,-1,26,28,-1,-1,-1,-1,-1,-1,-1,-1,-1,-1,-1,-1,-1,-1],"split_conditions":[2.917997E2,2.77783E2,2.97974E2,1.6309861E-2,4.416315E1,1.567869E0,3.2651066E1,2.66507E2,7.410301E0,-1.594088E0,2.8593E2,2.3437597E-2,-0E0,2.9814398E2,4.6282887E1,9.3337364E-4,3.2938606E-5,-1.6425193E-4,-1.0185187E-3,-0E0,2.4677378E-3,9.436654E-4,-0E0,-1.679381E-3,-0E0,-0E0,4.3282876E-4,-0E0,-3.630976E-4],"split_indices":[7,4,4,29,17,10,16,4,22,10,4,30,0,7,16,0,0,0,0,0,0,0,0,0,0,0,0,0,0],"split_type":[0,0,0,0,0,0,0,0,0,0,0,0,0,0,0,0,0,0,0,0,0,0,0,0,0,0,0,0,0],"sum_hessian":[2.19E2,1.29E2,9E1,8.6E1,4.3E1,5.2E1,3.8E1,3.8E1,4.8E1,2.3E1,2E1,4.4E1,8E0,1E1,2.8E1,2.4E1,1.4E1,1.7E1,3.1E1,1E0,2.2E1,1.9E1,1E0,3.7E1,7E0,2E0,8E0,1.1E1,1.7E1],"tree_param":{"num_deleted":"0","num_feature":"55","num_nodes":"29","size_leaf_vector":"1"}},{"base_weights":[-1.1259122E-3,6.159542E-2,-9.544636E-3,2.283345E-3,-0E0,3.72455E-2,-1.6787216E-2,2.0738049E-5,-0E0,-0E0,4.620585E-2,-9.363052E-3,-4.314709E-2,1.4820468E-3,-0E0,-1.348322E-3,-1.2777768E-4,-2.0251113E-4,-1.5492053E-3],"categories":[],"categories_nodes":[],"categories_segments":[],"categories_sizes":[],"default_left":[0,0,0,0,0,0,0,0,0,0,0,0,0,0,0,0,0,0,0],"id":20,"left_children":[1,3,5,-1,7,9,11,-1,-1,-1,13,15,17,-1,-1,-1,-1,-1,-1],"loss_changes":[1.1260629E-1,1.5216373E-2,6.567792E-2,0E0,2.867111E-6,1.0153901E-2,2.8396796E-2,0E0,0E0,0E0,1.5351735E-3,2.0311996E-2,4.6315715E-3,0E0,0E0,0E0,0E0,0E0,0E0],"parents":[2147483647,0,0,1,1,2,2,4,4,5,5,6,6,10,10,11,11,12,12],"right_children":[2,4,6,-1,8,10,12,-1,-1,-1,14,16,18,-1,-1,-1,-1,-1,-1],"split_conditions":[-4.541291E-2,1.4933574E-2,-2.6271006E8,2.283345E-3,2.6067E2,-3.836841E-2,1.0536624E-1,2.0738049E-5,-0E0,-0E0,1.6726404E-2,7.906951E-3,1.9505758E7,1.4820468E-3,-0E0,-1.348322E-3,-1.2777768E-4,-2.0251113E-4,-1.5492053E-3],"split_indices":[37,29,34,0,2,47,48,0,0,0,0,28,32,0,0,0,0,0,0],"split_type":[0,0,0,0,0,0,0,0,0,0,0,0,0,0,0,0,0,0,0],"sum_hessian":[2.21E2,2.4E1,1.97E2,1.8E1,6E0,2.4E1,1.73E2,5E0,1E0,4E0,2E1,1.39E2,3.4E1,1.8E1,2E0,1.4E1,1.25E2,9E0,2.5E1],"tree_param":{"num_deleted":"0","num_feature":"55","num_nodes":"19","size_leaf_vector":"1"}},{"base_weights":[2.2623665E-3,4.2936813E-2,-9.046388E-3,2.3591371E-2,2.3177206E-3,4.024561E-2,-1.6866427E-2,3.1132879E-2,-0E0,-0E0,5.050985E-2,-0E0,-2.692781E-2,-0E0,9.936686E-4,-0E0,1.1859748E-5,1.5835041E-3,-0E0,-6.717365E-4,3.406788E-4,-9.929312E-4,-0E0],"categories":[],"categories_nodes":[],"categories_segments":[],"categories_sizes":[],"default_left":[0,0,0,0,0,0,0,0,0,0,0,0,0,0,0,0,0,0,0,0,0,0,0],"id":21,"left_children":[1,3,5,7,-1,9,11,13,15,-1,17,19,21,-1,-1,-1,-1,-1,-1,-1,-1,-1,-1],"loss_changes":[1.0083268E-1,1.9961923E-2,6.1557196E-2,5.3086076E-3,0E0,1.1908516E-2,2.4295032E-2,2.098659E-3,1.2502545E-6,0E0,1.4412068E-3,1.4297405E-2,1.2517899E-2,0E0,0E0,0E0,0E0,0E0,0E0,0E0,0E0,0E0,0E0],"parents":[2147483647,0,0,1,1,2,2,3,3,5,5,6,6,7,7,8,8,10,10,11,11,12,12],"right_children":[2,4,6,8,-1,10,12,14,16,-1,18,20,22,-1,-1,-1,-1,-1,-1,-1,-1,-1,-1],"split_conditions":[-3.2863166E-2,2.8635925E2,-2.6271006E8,-6.526946E7,2.3177206E-3,-3.836841E-2,-1.8357552E8,2.44543E2,2.9254144E2,-0E0,2.1653945E-2,2.4731625E2,2.8590076E2,-0E0,9.936686E-4,-0E0,1.1859748E-5,1.5835041E-3,-0E0,-6.717365E-4,3.406788E-4,-9.929312E-4,-0E0],"split_indices":[37,5,34,34,0,47,34,5,6,0,29,5,5,0,0,0,0,0,0,0,0,0,0],"split_type":[0,0,0,0,0,0,0,0,0,0,0,0,0,0,0,0,0,0,0,0,0,0,0],"sum_hessian":[2.1E2,4.7E1,1.63E2,3.3E1,1.4E1,2E1,1.43E2,2.4E1,9E0,3E0,1.7E1,5.4E1,8.9E1,1E0,2.3E1,2E0,7E0,1.6E1,1E0,1.8E1,3.6E1,7E1,1.9E1],"tree_param":{"num_deleted":"0","num_feature":"55","num_nodes":"23","size_leaf_vector":"1"}},{"base_weights":[1.6343029E-5,4.426359E-2,-9.0592345E-3,5.390053E-2,-0E0,1.7862452E-2,-2.5483299E-2,6.700022E-3,6.773116E-2,4.1195836E-2,-1.2448842E-3,-2.8118638E-2,5.660407E-3,3.0070078E-4,-0E0,-0E0,2.1913901E-3,1.7297124E-3,5.6158216E-4,-4.8310516E-4,6.444295E-4,-1.0558923E-3,-1.3506287E-4,-0E0,3.289211E-4],"categories":[],"categories_nodes":[],"categories_segments":[],"categories_sizes":[],"default_left":[0,0,0,0,0,0,0,0,0,0,0,0,0,0,0,0,0,0,0,0,0,0,0,0,0],"id":22,"left_children":[1,3,5,7,-1,9,11,13,15,17,19,21,23,-1,-1,-1,-1,-1,-1,-1,-1,-1,-1,-1,-1],"loss_changes":[9.3471386E-2,1.459793E-2,8.257537E-2,1.299309E-2,0E0,3.4363423E-2,1.2007669E-2,3.5483876E-4,6.538391E-3,3.492713E-3,1.1964475E-2,1.4425628E-2,4.9697916E-4,0E0,0E0,0E0,0E0,0E0,0E0,0E0,0E0,0E0,0E0,0E0,0E0],"parents":[2147483647,0,0,1,1,2,2,3,3,5,5,6,6,7,7,8,8,9,9,10,10,11,11,12,12],"right_children":[2,4,6,8,-1,10,12,14,16,18,20,22,24,-1,-1,-1,-1,-1,-1,-1,-1,-1,-1,-1,-1],"split_conditions":[-3.594256E-2,3.01175E2,-2.0222752E8,2.5086E2,-0E0,1.6852904E-2,8.779174E-2,2.6903845E2,-9.537445E1,-2.6237886E8,2.77115E2,2.98769E2,2.6891E2,3.0070078E-4,-0E0,-0E0,2.1913901E-3,1.7297124E-3,5.6158216E-4,-4.8310516E-4,6.444295E-4,-1.0558923E-3,-1.3506287E-4,-0E0,3.289211E-4],"split_indices":[37,4,34,5,0,28,46,25,21,34,4,4,2,0,0,0,0,0,0,0,0,0,0,0,0],"split_type":[0,0,0,0,0,0,0,0,0,0,0,0,0,0,0,0,0,0,0,0,0,0,0,0,0],"sum_hessian":[2.22E2,3.9E1,1.83E2,3.1E1,8E0,6.7E1,1.16E2,9E0,2.2E1,3.2E1,3.5E1,1.1E2,6E0,7E0,2E0,2E0,2E1,1.5E1,1.7E1,2.4E1,1.1E1,8.1E1,2.9E1,1E0,5E0],"tree_param":{"num_deleted":"0","num_feature":"55","num_nodes":"25","size_leaf_vector":"1"}},{"base_weights":[-0E0,1.5569843E-2,-2.5435522E-2,4.2926505E-2,-1.1751593E-2,-4.028832E-2,-0E0,2.2498492E-2,7.278551E-2,-2.1911627E-2,1.8263966E-2,-4.576129E-2,-0E0,4.8485788E-4,-5.1462455E-3,-0E0,7.678748E-4,-0E0,2.2813608E-3,-0E0,-8.395777E-4,6.3448265E-4,-0E0,-0E0,-1.6194934E-3,-0E0,-1.7774235E-4],"categories":[],"categories_nodes":[],"categories_segments":[],"categories_sizes":[],"default_left":[0,0,0,0,0,0,0,0,0,0,0,0,0,0,0,0,0,0,0,0,0,0,0,0,0,0,0],"id":23,"left_children":[1,3,5,7,9,11,13,15,17,19,21,23,-1,-1,25,-1,-1,-1,-1,-1,-1,-1,-1,-1,-1,-1,-1],"loss_changes":[8.925514E-2,1.0527152E-1,3.4610324E-2,3.153126E-2,2.1197218E-2,1.1714347E-2,3.2212082E-3,4.0828064E-3,1.04855E-3,9.014996E-3,1.258587E-3,1.3956368E-2,0E0,0E0,1.6312889E-4,0E0,0E0,0E0,0E0,0E0,0E0,0E0,0E0,0E0,0E0,0E0,0E0],"parents":[2147483647,0,0,1,1,2,2,3,3,4,4,5,5,6,6,7,7,8,8,9,9,10,10,11,11,14,14],"right_children":[2,4,6,8,10,12,14,16,18,20,22,24,-1,-1,26,-1,-1,-1,-1,-1,-1,-1,-1,-1,-1,-1,-1],"split_conditions":[2.917997E2,1.6125612E7,2.98769E2,2.6592325E2,2.75487E2,2.921115E2,3.946568E1,-1.6582064E-2,1.0747826E1,2.6623645E-1,2.8593E2,2.617878E2,-0E0,4.8485788E-4,-2.780253E-2,-0E0,7.678748E-4,-0E0,2.2813608E-3,-0E0,-8.395777E-4,6.3448265E-4,-0E0,-0E0,-1.6194934E-3,-0E0,-1.7774235E-4],"split_indices":[7,32,4,5,4,5,15,44,13,31,4,23,0,0,0,0,0,0,0,0,0,0,0,0,0,0,0],"split_type":[0,0,0,0,0,0,0,0,0,0,0,0,0,0,0,0,0,0,0,0,0,0,0,0,0,0,0],"sum_hessian":[2.21E2,1.35E2,8.6E1,6.9E1,6.6E1,5.5E1,3.1E1,4.4E1,2.5E1,5.2E1,1.4E1,4.8E1,7E0,9E0,2.2E1,4E0,4E1,2E0,2.3E1,9E0,4.3E1,1.3E1,1E0,9E0,3.9E1,1E0,2.1E1],"tree_param":{"num_deleted":"0","num_feature":"55","num_nodes":"27","size_leaf_vector":"1"}},{"base_weights":[2.3513613E-3,5.3831913E-2,-4.3011475E-3,2.1824185E-3,8.894773E-3,5.1163588E-2,-1.0548587E-2,1.1143121E-2,-0E0,6.0391292E-2,-0E0,-2.9083001E-3,-3.0052142E-2,3.678704E-4,-0E0,-0E0,1.9030641E-3,1.0109704E-4,-7.4903545E-4,-1.583168E-3,-2.01681E-4],"categories":[],"categories_nodes":[],"categories_segments":[],"categories_sizes":[],"default_left":[0,0,0,0,0,0,0,0,0,0,0,0,0,0,0,0,0,0,0,0,0],"id":24,"left_children":[1,3,5,-1,7,9,11,13,-1,15,-1,17,19,-1,-1,-1,-1,-1,-1,-1,-1],"loss_changes":[8.361135E-2,1.4988795E-2,6.647374E-2,0E0,2.4723547E-4,4.970085E-3,2.4034899E-2,8.5398904E-5,0E0,1.6302057E-3,0E0,2.1217654E-2,1.9138027E-2,0E0,0E0,0E0,0E0,0E0,0E0,0E0,0E0],"parents":[2147483647,0,0,1,1,2,2,4,4,5,5,6,6,7,7,9,9,11,11,12,12],"right_children":[2,4,6,-1,8,10,12,14,-1,16,-1,18,20,-1,-1,-1,-1,-1,-1,-1,-1],"split_conditions":[-4.541291E-2,-3.1942394E0,-2.7985824E8,2.1824185E-3,-3.4402017E-2,1.6783495E-2,2.8669025E2,2.89955E2,-0E0,-3.2842262E0,-0E0,9.3461536E-2,2.9801324E2,3.678704E-4,-0E0,-0E0,1.9030641E-3,1.0109704E-4,-7.4903545E-4,-1.583168E-3,-2.01681E-4],"split_indices":[37,11,34,0,48,28,23,2,0,9,0,47,8,0,0,0,0,0,0,0,0],"split_type":[0,0,0,0,0,0,0,0,0,0,0,0,0,0,0,0,0,0,0,0,0],"sum_hessian":[2.28E2,2.7E1,2.01E2,1.7E1,1E1,1.8E1,1.83E2,8E0,2E0,1.4E1,4E0,1.36E2,4.7E1,7E0,1E0,1E0,1.3E1,1.03E2,3.3E1,2.1E1,2.6E1],"tree_param":{"num_deleted":"0","num_feature":"55","num_nodes":"21","size_leaf_vector":"1"}},{"base_weights":[-0E0,3.8699552E-2,-9.356677E-3,2.0185702E-2,7.360291E-2,3.899213E-2,-1.6356476E-2,-0E0,2.6373796E-2,-0E0,2.3013018E-3,1.7342056E-3,2.5152464E-3,-9.150474E-3,-4.1319154E-2,-0E0,9.1451977E-4,-0E0,1.8769299E-4,3.600696E-5,-7.224252E-4,-1.2865915E-3,-0E0],"categories":[],"categories_nodes":[],"categories_segments":[],"categories_sizes":[],"default_left":[0,0,0,0,0,0,0,0,0,0,0,0,0,0,0,0,0,0,0,0,0,0,0],"id":25,"left_children":[1,3,5,7,9,11,13,-1,15,-1,-1,-1,17,19,21,-1,-1,-1,-1,-1,-1,-1,-1],"loss_changes":[8.148027E-2,1.7568015E-2,5.8615092E-2,5.0462037E-3,1.8715113E-4,8.234743E-3,2.2996157E-2,0E0,2.3590177E-3,0E0,0E0,0E0,2.49879E-4,2.194352E-2,5.4453686E-4,0E0,0E0,0E0,0E0,0E0,0E0,0E0,0E0],"parents":[2147483647,0,0,1,1,2,2,3,3,4,4,5,5,6,6,8,8,12,12,13,13,14,14],"right_children":[2,4,6,8,10,12,14,-1,16,-1,-1,-1,18,20,22,-1,-1,-1,-1,-1,-1,-1,-1],"split_conditions":[-3.2863166E-2,2.8642926E2,-2.6271006E8,1.0148983E-2,1.8793781E-3,1.6811302E-2,1.05970405E-1,-0E0,-1.6123602E-2,-0E0,2.3013018E-3,1.7342056E-3,8.011391E0,2.1411291E1,3.05049E2,-0E0,9.1451977E-4,-0E0,1.8769299E-4,3.600696E-5,-7.224252E-4,-1.2865915E-3,-0E0],"split_indices":[37,5,34,28,40,28,48,0,1,0,0,0,26,14,4,0,0,0,0,0,0,0,0],"split_type":[0,0,0,0,0,0,0,0,0,0,0,0,0,0,0,0,0,0,0,0,0,0,0],"sum_hessian":[2.2E2,4.3E1,1.77E2,3.1E1,1.2E1,2E1,1.57E2,6E0,2.5E1,1E0,1.1E1,1.1E1,9E0,1.26E2,3.1E1,4E0,2.1E1,2E0,7E0,7.1E1,5.5E1,2.9E1,2E0],"tree_param":{"num_deleted":"0","num_feature":"55","num_nodes":"23","size_leaf_vector":"1"}},{"base_weights":[-7.394266E-4,5.8226213E-2,-6.2754895E-3,1.9752546E-3,-0E0,3.3005867E-2,-1.4598898E-2,-0E0,4.515159E-2,-8.107223E-3,-3.5218406E-2,1.5770586E-4,-0E0,1.7457604E-3,7.670535E-5,-1.2354988E-3,-8.959421E-5,-3.95342E-4,-1.469459E-3],"categories":[],"categories_nodes":[],"categories_segments":[],"categories_sizes":[],"default_left":[0,0,0,0,0,0,0,0,0,0,0,0,0,0,0,0,0,0,0],"id":26,"left_children":[1,3,5,-1,-1,7,9,11,13,15,17,-1,-1,-1,-1,-1,-1,-1,-1],"loss_changes":[6.535438E-2,3.0570738E-3,6.370516E-2,0E0,0E0,8.900873E-3,1.7735727E-2,2.4871138E-4,5.9963055E-3,1.7817432E-2,4.0592365E-3,0E0,0E0,0E0,0E0,0E0,0E0,0E0,0E0],"parents":[2147483647,0,0,1,1,2,2,5,5,6,6,7,7,8,8,9,9,10,10],"right_children":[2,4,6,-1,-1,8,10,12,14,16,18,-1,-1,-1,-1,-1,-1,-1,-1],"split_conditions":[-4.934977E0,2.8317E2,-2.6237886E8,1.9752546E-3,-0E0,2.5086E2,1.03534386E-1,2.6903845E2,1.6783495E-2,7.906951E-3,7.191473E0,1.5770586E-4,-0E0,1.7457604E-3,7.670535E-5,-1.2354988E-3,-8.959421E-5,-3.95342E-4,-1.469459E-3],"split_indices":[9,2,34,0,0,5,48,25,28,28,22,0,0,0,0,0,0,0,0],"split_type":[0,0,0,0,0,0,0,0,0,0,0,0,0,0,0,0,0,0,0],"sum_hessian":[2.14E2,1.6E1,1.98E2,1.3E1,3E0,3.2E1,1.66E2,1.1E1,2.1E1,1.31E2,3.5E1,8E0,3E0,1.4E1,7E0,1.4E1,1.17E2,1.7E1,1.8E1],"tree_param":{"num_deleted":"0","num_feature":"55","num_nodes":"19","size_leaf_vector":"1"}},{"base_weights":[-0E0,1.5843421E-2,-2.2924412E-2,4.9556274E-2,-4.1874563E-3,-2.7066205E-2,1.6969433E-3,5.975411E-2,1.598914E-2,-1.7335773E-2,2.4061933E-2,1.7205319E-5,-2.9705359E-2,-0E0,1.0044119E-4,-0E0,1.9268118E-3,5.038878E-4,-0E0,-0E0,-8.459253E-4,7.785977E-4,-0E0,-1.2154112E-3,-4.0039912E-4],"categories":[],"categories_nodes":[],"categories_segments":[],"categories_sizes":[],"default_left":[0,0,0,0,0,0,0,0,0,0,0,0,0,0,0,0,0,0,0,0,0,0,0,0,0],"id":27,"left_children":[1,3,5,7,9,11,13,15,17,19,21,-1,23,-1,-1,-1,-1,-1,-1,-1,-1,-1,-1,-1,-1],"loss_changes":[8.378861E-2,9.726022E-2,1.216865E-2,9.612799E-3,3.131623E-2,9.057641E-3,3.558044E-5,8.698016E-3,1.4127325E-4,9.496216E-3,1.6912995E-3,0E0,8.21811E-3,0E0,0E0,0E0,0E0,0E0,0E0,0E0,0E0,0E0,0E0,0E0,0E0],"parents":[2147483647,0,0,1,1,2,2,3,3,4,4,5,5,6,6,7,7,8,8,9,9,10,10,12,12],"right_children":[2,4,6,8,10,12,14,16,18,20,22,-1,24,-1,-1,-1,-1,-1,-1,-1,-1,-1,-1,-1,-1],"split_conditions":[2.9107E2,1.5601531E-2,2.7916323E1,-6.123791E-3,2.633885E2,2.6949124E2,2.3400394E1,2.501555E2,2.898722E2,7.357075E0,2.888865E2,1.7205319E-5,2.9801788E2,-0E0,1.0044119E-4,-0E0,1.9268118E-3,5.038878E-4,-0E0,-0E0,-8.459253E-4,7.785977E-4,-0E0,-1.2154112E-3,-4.0039912E-4],"split_indices":[2,29,14,37,5,5,12,5,25,22,5,0,8,0,0,0,0,0,0,0,0,0,0,0,0],"split_type":[0,0,0,0,0,0,0,0,0,0,0,0,0,0,0,0,0,0,0,0,0,0,0,0,0],"sum_hessian":[2.29E2,1.36E2,9.3E1,5.2E1,8.4E1,8.3E1,1E1,3.7E1,1.5E1,6E1,2.4E1,4E0,7.9E1,5E0,5E0,3E0,3.4E1,1.4E1,1E0,2.6E1,3.4E1,2.3E1,1E0,4.3E1,3.6E1],"tree_param":{"num_deleted":"0","num_feature":"55","num_nodes":"25","size_leaf_vector":"1"}},{"base_weights":[-0E0,3.6344387E-2,-8.266914E-3,2.442679E-3,2.0401781E-2,1.19434595E-2,-2.4342025E-2,2.4346456E-2,-0E0,2.931345E-2,-2.2779023E-3,-2.6087763E-2,-0E0,8.4269914E-4,-0E0,1.0775097E-3,-0E0,-4.1502222E-4,5.7913625E-4,-9.30419E-4,-1.9979198E-4],"categories":[],"categories_nodes":[],"categories_segments":[],"categories_sizes":[],"default_left":[0,0,0,0,0,0,0,0,0,0,0,0,0,0,0,0,0,0,0,0,0],"id":28,"left_children":[1,3,5,-1,7,9,11,13,-1,15,17,19,-1,-1,-1,-1,-1,-1,-1,-1,-1],"loss_changes":[6.736989E-2,1.8340304E-2,5.8060393E-2,0E0,3.0378364E-3,2.1297194E-2,6.762013E-3,2.536416E-3,0E0,5.6175813E-3,9.4470205E-3,5.3096116E-3,0E0,0E0,0E0,0E0,0E0,0E0,0E0,0E0,0E0],"parents":[2147483647,0,0,1,1,2,2,4,4,5,5,6,6,7,7,9,9,10,10,11,11],"right_children":[2,4,6,-1,8,10,12,14,-1,16,18,20,-1,-1,-1,-1,-1,-1,-1,-1,-1],"split_conditions":[4.0604713E1,-8.8544115E-2,-1.922652E8,2.442679E-3,8.081743E0,1.6852904E-2,4.0032944E1,1.3164557E-2,-0E0,2.79125E2,2.77115E2,2.99303E2,-0E0,8.4269914E-4,-0E0,1.0775097E-3,-0E0,-4.1502222E-4,5.7913625E-4,-9.30419E-4,-1.9979198E-4],"split_indices":[15,48,34,0,22,28,13,45,0,24,4,4,0,0,0,0,0,0,0,0,0],"split_type":[0,0,0,0,0,0,0,0,0,0,0,0,0,0,0,0,0,0,0,0,0],"sum_hessian":[2.14E2,4.1E1,1.73E2,8E0,3.3E1,7.4E1,9.9E1,2.8E1,5E0,3.6E1,3.8E1,9.6E1,3E0,2.4E1,4E0,2.8E1,8E0,2.8E1,1E1,7.2E1,2.4E1],"tree_param":{"num_deleted":"0","num_feature":"55","num_nodes":"21","size_leaf_vector":"1"}},{"base_weights":[5.2009017E-4,6.51902E-2,-2.864529E-3,-0E0,2.0397506E-3,3.0126197E-2,-1.006558E-2,-0E0,3.912954E-2,1.576571E-2,-1.3764118E-2,1.3575606E-3,-0E0,-0E0,6.6175224E-4,-0E0,-6.7509105E-4],"categories":[],"categories_nodes":[],"categories_segments":[],"categories_sizes":[],"default_left":[0,0,0,0,0,0,0,0,0,0,0,0,0,0,0,0,0],"id":29,"left_children":[1,3,5,-1,-1,7,9,-1,11,13,15,-1,-1,-1,-1,-1,-1],"loss_changes":[5.698144E-2,2.2752583E-4,5.0324548E-2,0E0,0E0,1.0821767E-2,1.7500294E-2,0E0,2.695635E-3,3.300595E-3,2.1594252E-2,0E0,0E0,0E0,0E0,0E0,0E0],"parents":[2147483647,0,0,1,1,2,2,5,5,6,6,8,8,9,9,10,10],"right_children":[2,4,6,-1,-1,8,10,-1,12,14,16,-1,-1,-1,-1,-1,-1],"split_conditions":[-4.338079E0,1.8793781E-3,-2.6237886E8,-0E0,2.0397506E-3,-2.4522897E-2,3.946568E1,-0E0,1.6811302E-2,2.0549278E1,-1.8422707E8,1.3575606E-3,-0E0,-0E0,6.6175224E-4,-0E0,-6.7509105E-4],"split_indices":[11,40,34,0,0,36,15,0,28,12,34,0,0,0,0,0,0],"split_type":[0,0,0,0,0,0,0,0,0,0,0,0,0,0,0,0,0],"sum_hessian":[2.3E2,1.2E1,2.18E2,1E0,1.1E1,3.6E1,1.82E2,8E0,2.8E1,1.9E1,1.63E2,2.2E1,6E0,3E0,1.6E1,6E1,1.03E2],"tree_param":{"num_deleted":"0","num_feature":"55","num_nodes":"17","size_leaf_vector":"1"}},{"base_weights":[-1.1578847E-3,2.9158484E-2,-9.423866E-3,1.4095207E-2,1.723823E-3,1.0543311E-2,-2.1428037E-2,-0E0,1.82303E-2,-1.4655532E-2,2.2097265E-2,-2.5531543E-2,-0E0,6.2150415E-4,-0E0,-0E0,-4.6823017E-4,9.361899E-4,-0E0,-9.5885E-4,-8.289403E-5,2.2049453E-4,-3.2737115E-4],"categories":[],"categories_nodes":[],"categories_segments":[],"categories_sizes":[],"default_left":[0,0,0,0,0,0,0,0,0,0,0,0,0,0,0,0,0,0,0,0,0,0,0],"id":30,"left_children":[1,3,5,7,-1,9,11,-1,13,15,17,19,21,-1,-1,-1,-1,-1,-1,-1,-1,-1,-1],"loss_changes":[5.368272E-2,1.1219114E-2,4.3739416E-2,3.0817026E-3,0E0,1.9701382E-2,8.278627E-3,0E0,1.5208628E-3,2.7506775E-4,9.186966E-3,1.005476E-2,2.0882362E-3,0E0,0E0,0E0,0E0,0E0,0E0,0E0,0E0,0E0,0E0],"parents":[2147483647,0,0,1,1,2,2,3,3,5,5,6,6,8,8,9,9,10,10,11,11,12,12],"right_children":[2,4,6,8,-1,10,12,-1,14,16,18,20,22,-1,-1,-1,-1,-1,-1,-1,-1,-1,-1],"split_conditions":[-3.1266227E-2,2.8635925E2,-2.0222752E8,9.665678E-3,1.723823E-3,2.4793425E2,2.8590076E2,-0E0,3.2893166E1,2.59835E2,7.4571714E-2,2.98769E2,8.400558E-2,6.2150415E-4,-0E0,-0E0,-4.6823017E-4,9.361899E-4,-0E0,-9.5885E-4,-8.289403E-5,2.2049453E-4,-3.2737115E-4],"split_indices":[37,5,34,28,0,5,5,0,14,2,48,4,37,0,0,0,0,0,0,0,0,0,0],"split_type":[0,0,0,0,0,0,0,0,0,0,0,0,0,0,0,0,0,0,0,0,0,0,0],"sum_hessian":[2.2E2,4.4E1,1.76E2,3.2E1,1.2E1,6.3E1,1.13E2,4E0,2.8E1,1.7E1,4.6E1,9.2E1,2.1E1,2.5E1,3E0,1E0,1.6E1,3.2E1,1.4E1,6.8E1,2.4E1,9E0,1.2E1],"tree_param":{"num_deleted":"0","num_feature":"55","num_nodes":"23","size_leaf_vector":"1"}},{"base_weights":[-0E0,1.148727E-2,-2.0575993E-2,3.3550825E-2,-6.8957126E-3,-3.847506E-2,-0E0,4.6702504E-2,9.053632E-3,-2.0679707E-2,1.4885695E-2,-1.3752119E-3,-0E0,1.0271247E-2,-2.234233E-3,1.7392452E-4,1.734131E-3,-0E0,4.971148E-4,-7.17462E-4,-0E0,7.524924E-4,-1.501213E-4,-0E0,3.662285E-4,-0E0,-9.8688804E-5],"categories":[],"categories_nodes":[],"categories_segments":[],"categories_sizes":[],"default_left":[0,0,0,0,0,0,0,0,0,0,0,0,0,0,0,0,0,0,0,0,0,0,0,0,0,0,0],"id":31,"left_children":[1,3,5,7,9,11,13,15,17,19,21,-1,-1,23,25,-1,-1,-1,-1,-1,-1,-1,-1,-1,-1,-1,-1],"loss_changes":[5.2712124E-2,6.2113587E-2,3.1688184E-2,1.6231924E-2,2.4305549E-2,8.412436E-3,1.3907768E-3,1.2377821E-2,2.3727708E-3,4.4993665E-3,7.8124735E-3,0E0,0E0,2.2427691E-4,1.2410292E-4,0E0,0E0,0E0,0E0,0E0,0E0,0E0,0E0,0E0,0E0,0E0,0E0],"parents":[2147483647,0,0,1,1,2,2,3,3,4,4,5,5,6,6,7,7,8,8,9,9,10,10,13,13,14,14],"right_children":[2,4,6,8,10,12,14,16,18,20,22,-1,-1,24,26,-1,-1,-1,-1,-1,-1,-1,-1,-1,-1,-1,-1],"split_conditions":[2.9381E2,2.737953E-1,2.98205E2,-9.175575E-3,2.77115E2,2.85982E2,3.946568E1,2.5086E2,1.7610498E-2,2.5225134E1,2.8694174E2,-1.3752119E-3,-0E0,3.0036E2,-2.0147648E-2,1.7392452E-4,1.734131E-3,-0E0,4.971148E-4,-7.17462E-4,-0E0,7.524924E-4,-1.501213E-4,-0E0,3.662285E-4,-0E0,-9.8688804E-5],"split_indices":[3,31,4,37,4,5,15,5,38,12,8,0,0,3,0,0,0,0,0,0,0,0,0,0,0,0,0],"split_type":[0,0,0,0,0,0,0,0,0,0,0,0,0,0,0,0,0,0,0,0,0,0,0,0,0,0,0],"sum_hessian":[2.23E2,1.45E2,7.8E1,6.8E1,7.7E1,4.3E1,3.5E1,4.1E1,2.7E1,5E1,2.7E1,3.4E1,9E0,1.1E1,2.4E1,1.1E1,3E1,1.1E1,1.6E1,4.5E1,5E0,2.1E1,6E0,2E0,9E0,2E0,2.2E1],"tree_param":{"num_deleted":"0","num_feature":"55","num_nodes":"27","size_leaf_vector":"1"}},{"base_weights":[1.4253076E-3,6.399832E-2,-2.6327625E-3,2.0034385E-3,-0E0,3.0265272E-2,-1.0559189E-2,-0E0,3.5791017E-2,1.6173067E-2,-1.4489148E-2,1.1406578E-3,-0E0,-0E0,6.4756966E-4,-3.5314202E-5,-7.058658E-4],"categories":[],"categories_nodes":[],"categories_segments":[],"categories_sizes":[],"default_left":[0,0,0,0,0,0,0,0,0,0,0,0,0,0,0,0,0],"id":32,"left_children":[1,3,5,-1,-1,7,9,-1,11,13,15,-1,-1,-1,-1,-1,-1],"loss_changes":[6.242263E-2,9.99596E-4,5.2327085E-2,0E0,0E0,7.4654035E-3,1.7925575E-2,0E0,2.5427826E-3,2.9511964E-3,1.5792884E-2,0E0,0E0,0E0,0E0,0E0,0E0],"parents":[2147483647,0,0,1,1,2,2,5,5,6,6,8,8,9,9,10,10],"right_children":[2,4,6,-1,-1,8,10,-1,12,14,16,-1,-1,-1,-1,-1,-1],"split_conditions":[-4.2957697E0,1.8772563E-2,-2.6237886E8,2.0034385E-3,-0E0,-3.655289E-2,3.946568E1,-0E0,1.9666903E-2,1.954525E1,-1.7362272E8,1.1406578E-3,-0E0,-0E0,6.4756966E-4,-3.5314202E-5,-7.058658E-4],"split_indices":[11,0,34,0,0,36,15,0,40,12,34,0,0,0,0,0,0],"split_type":[0,0,0,0,0,0,0,0,0,0,0,0,0,0,0,0,0],"sum_hessian":[2.2E2,1.4E1,2.06E2,1.3E1,1E0,3.7E1,1.69E2,5E0,3.2E1,1.8E1,1.51E2,3E1,2E0,2E0,1.6E1,6.6E1,8.5E1],"tree_param":{"num_deleted":"0","num_feature":"55","num_nodes":"17","size_leaf_vector":"1"}},{"base_weights":[-1.4980892E-3,1.0293831E-2,-2.0093992E-2,3.5257537E-2,-8.995433E-3,-3.026483E-2,-6.799896E-4,3.0128506E-4,4.190699E-2,-2.3413256E-2,1.9017799E-2,-0E0,-3.713355E-2,-9.335883E-3,1.8373884E-3,8.284419E-5,-0E0,4.1210683E-4,1.6105854E-3,-7.53957E-4,-0E0,6.7042967E-4,-0E0,7.4609845E-5,-6.5789536E-5,-1.2872196E-3,-0E0,-2.9938985E-4,-0E0,1.1858934E-4,-0E0],"categories":[],"categories_nodes":[],"categories_segments":[],"categories_sizes":[],"default_left":[0,0,0,0,0,0,0,0,0,0,0,0,0,0,0,0,0,0,0,0,0,0,0,0,0,0,0,0,0,0,0],"id":33,"left_children":[1,3,5,7,9,11,13,15,17,19,21,23,25,27,29,-1,-1,-1,-1,-1,-1,-1,-1,-1,-1,-1,-1,-1,-1,-1,-1],"loss_changes":[4.942877E-2,6.650554E-2,1.4458578E-2,9.712942E-3,3.0368773E-2,1.1672724E-2,1.5296586E-3,7.5077296E-5,8.447602E-3,2.3601893E-3,1.6697906E-3,6.734191E-5,9.749968E-3,1.2206612E-5,9.211645E-5,0E0,0E0,0E0,0E0,0E0,0E0,0E0,0E0,0E0,0E0,0E0,0E0,0E0,0E0,0E0,0E0],"parents":[2147483647,0,0,1,1,2,2,3,3,4,4,5,5,6,6,7,7,8,8,9,9,10,10,11,11,12,12,13,13,14,14],"right_children":[2,4,6,8,10,12,14,16,18,20,22,24,26,28,30,-1,-1,-1,-1,-1,-1,-1,-1,-1,-1,-1,-1,-1,-1,-1,-1],"split_conditions":[2.9107E2,1.6724506E-2,2.98769E2,2.5086E2,2.77115E2,2.9237E2,2.1411291E1,2.6903845E2,1.958034E1,5.665459E0,2.931843E2,2.8850298E0,2.921115E2,1.1398964E-2,2.82241E2,8.284419E-5,-0E0,4.1210683E-4,1.6105854E-3,-7.53957E-4,-0E0,6.7042967E-4,-0E0,7.4609845E-5,-6.5789536E-5,-1.2872196E-3,-0E0,-2.9938985E-4,-0E0,1.1858934E-4,-0E0],"split_indices":[2,29,4,5,4,3,14,25,14,11,6,10,5,39,5,0,0,0,0,0,0,0,0,0,0,0,0,0,0,0,0],"split_type":[0,0,0,0,0,0,0,0,0,0,0,0,0,0,0,0,0,0,0,0,0,0,0,0,0,0,0,0,0,0,0],"sum_hessian":[2.19E2,1.31E2,8.8E1,5.9E1,7.2E1,5.4E1,3.4E1,1.2E1,4.7E1,5E1,2.2E1,1E1,4.4E1,1.6E1,1.8E1,9E0,3E0,1.7E1,3E1,4.7E1,3E0,1.9E1,3E0,6E0,4E0,3.8E1,6E0,1.4E1,2E0,9E0,9E0],"tree_param":{"num_deleted":"0","num_feature":"55","num_nodes":"31","size_leaf_vector":"1"}},{"base_weights":[1.4142192E-3,1.4019651E-2,-1.645704E-2,3.6047086E-2,-5.206106E-3,-2.9941034E-2,-0E0,1.9572878E-2,6.0931604E-2,-1.8417232E-2,1.8243464E-2,-3.7682414E-2,-0E0,-8.728969E-3,3.9966367E-3,8.076618E-4,2.6008553E-5,1.921845E-3,-0E0,-8.034504E-4,-8.307503E-5,6.6654664E-4,-0E0,-0E0,-1.2469889E-3,-0E0,-2.8223442E-4,-0E0,2.5122543E-4],"categories":[],"categories_nodes":[],"categories_segments":[],"categories_sizes":[],"default_left":[0,0,0,0,0,0,0,0,0,0,0,0,0,0,0,0,0,0,0,0,0,0,0,0,0,0,0,0,0],"id":34,"left_children":[1,3,5,7,9,11,13,15,17,19,21,23,-1,25,27,-1,-1,-1,-1,-1,-1,-1,-1,-1,-1,-1,-1,-1,-1],"loss_changes":[4.9998023E-2,6.0019977E-2,1.7133169E-2,1.740387E-2,2.2039033E-2,8.461338E-3,1.9834475E-3,3.1091087E-3,7.901937E-4,3.2533482E-3,2.7116858E-3,7.3172413E-3,0E0,1.7004681E-4,5.9842225E-4,0E0,0E0,0E0,0E0,0E0,0E0,0E0,0E0,0E0,0E0,0E0,0E0,0E0,0E0],"parents":[2147483647,0,0,1,1,2,2,3,3,4,4,5,5,6,6,7,7,8,8,9,9,10,10,11,11,13,13,14,14],"right_children":[2,4,6,8,10,12,14,16,18,20,22,24,-1,26,28,-1,-1,-1,-1,-1,-1,-1,-1,-1,-1,-1,-1,-1,-1],"split_conditions":[2.9163635E2,1.640837E-2,2.98205E2,2.6592325E2,2.77115E2,2.900255E2,2.298893E1,1.5035604E7,2.8755E2,2.5587625E2,2.8593E2,2.83812E2,-0E0,-4.802695E0,8.242743E0,8.076618E-4,2.6008553E-5,1.921845E-3,-0E0,-8.034504E-4,-8.307503E-5,6.6654664E-4,-0E0,-0E0,-1.2469889E-3,-0E0,-2.8223442E-4,-0E0,2.5122543E-4],"split_indices":[7,29,4,5,4,5,14,32,3,5,4,4,0,9,26,0,0,0,0,0,0,0,0,0,0,0,0,0,0],"split_type":[0,0,0,0,0,0,0,0,0,0,0,0,0,0,0,0,0,0,0,0,0,0,0,0,0,0,0,0,0],"sum_hessian":[2.21E2,1.33E2,8.8E1,6.4E1,6.9E1,4.5E1,4.3E1,4.2E1,2.2E1,4.7E1,2.2E1,3.4E1,1.1E1,2E1,2.3E1,2.6E1,1.6E1,2E1,2E0,2.6E1,2.1E1,2E1,2E0,2E0,3.2E1,1E0,1.9E1,1E1,1.3E1],"tree_param":{"num_deleted":"0","num_feature":"55","num_nodes":"29","size_leaf_vector":"1"}},{"base_weights":[1.2740602E-3,1.3485799E-2,-1.7173544E-2,3.6535364E-2,-5.59133E-3,-2.6548497E-2,-0E0,1.9304557E-2,5.6367442E-2,-1.8124355E-2,1.710765E-2,-3.556346E-2,-0E0,4.086422E-3,-7.7402005E-3,-0E0,7.202556E-4,-0E0,1.7300105E-3,-0E0,-5.9405045E-4,5.60905E-4,-0E0,-0E0,-1.2392043E-3,-0E0,-8.3905376E-5,-0E0,2.3643582E-4,-0E0,-2.4463463E-4],"categories":[],"categories_nodes":[],"categories_segments":[],"categories_sizes":[],"default_left":[0,0,0,0,0,0,0,0,0,0,0,0,0,0,0,0,0,0,0,0,0,0,0,0,0,0,0,0,0,0,0],"id":35,"left_children":[1,3,5,7,9,11,13,15,17,19,21,23,25,27,29,-1,-1,-1,-1,-1,-1,-1,-1,-1,-1,-1,-1,-1,-1,-1,-1],"loss_changes":[5.009967E-2,6.397997E-2,1.1991568E-2,1.3556629E-2,2.1463767E-2,9.440508E-3,1.3622731E-3,1.6054846E-3,6.7581236E-4,1.6759057E-3,1.0160259E-3,1.121648E-2,9.386818E-5,3.372519E-4,5.203369E-5,0E0,0E0,0E0,0E0,0E0,0E0,0E0,0E0,0E0,0E0,0E0,0E0,0E0,0E0,0E0,0E0],"parents":[2147483647,0,0,1,1,2,2,3,3,4,4,5,5,6,6,7,7,8,8,9,9,10,10,11,11,12,12,13,13,14,14],"right_children":[2,4,6,8,10,12,14,16,18,20,22,24,26,28,30,-1,-1,-1,-1,-1,-1,-1,-1,-1,-1,-1,-1,-1,-1,-1,-1],"split_conditions":[2.9107E2,2.654933E-1,2.98205E2,2.6592325E2,2.76946E2,2.900255E2,4.6282887E1,-7.3854935E-1,1.8793781E-3,2.0677309E1,2.888865E2,2.83812E2,-1.2628781E-2,3.0063873E2,3.4506658E-1,-0E0,7.202556E-4,-0E0,1.7300105E-3,-0E0,-5.9405045E-4,5.60905E-4,-0E0,-0E0,-1.2392043E-3,-0E0,-8.3905376E-5,-0E0,2.3643582E-4,-0E0,-2.4463463E-4],"split_indices":[2,31,4,5,4,5,16,10,40,17,5,4,46,7,27,0,0,0,0,0,0,0,0,0,0,0,0,0,0,0,0],"split_type":[0,0,0,0,0,0,0,0,0,0,0,0,0,0,0,0,0,0,0,0,0,0,0,0,0,0,0,0,0,0,0],"sum_hessian":[2.22E2,1.37E2,8.5E1,6.4E1,7.3E1,5.2E1,3.3E1,3.8E1,2.6E1,5E1,2.3E1,3.6E1,1.6E1,1.6E1,1.7E1,1.1E1,2.7E1,1E0,2.5E1,4E0,4.6E1,2.2E1,1E0,3E0,3.3E1,5E0,1.1E1,7E0,9E0,1E0,1.6E1],"tree_param":{"num_deleted":"0","num_feature":"55","num_nodes":"31","size_leaf_vector":"1"}},{"base_weights":[1.2082091E-3,1.3969257E-2,-1.6497161E-2,3.717828E-2,-3.9999303E-3,-2.7813025E-2,-0E0,1.9509392E-2,5.6366812E-2,-1.6186275E-2,1.789605E-2,-0E0,-3.394928E-2,5.243575E-3,-8.691381E-3,7.9802686E-4,3.4236895E-5,2.0409462E-3,4.6989793E-4,-5.5210857E-4,-0E0,6.4806675E-4,-0E0,-0E0,-1.1787132E-4,-1.1846517E-3,-0E0,2.8806308E-4,-0E0,-0E0,-2.698113E-4],"categories":[],"categories_nodes":[],"categories_segments":[],"categories_sizes":[],"default_left":[0,0,0,0,0,0,0,0,0,0,0,0,0,0,0,0,0,0,0,0,0,0,0,0,0,0,0,0,0,0,0],"id":36,"left_children":[1,3,5,7,9,11,13,15,17,19,21,23,25,27,29,-1,-1,-1,-1,-1,-1,-1,-1,-1,-1,-1,-1,-1,-1,-1,-1],"loss_changes":[5.058801E-2,5.935089E-2,1.6232692E-2,1.1994138E-2,1.986426E-2,7.4083284E-3,1.9165686E-3,1.8847119E-3,2.9096156E-3,2.218118E-3,2.5799903E-3,1.234991E-4,7.7287555E-3,4.7401746E-4,1.0007527E-5,0E0,0E0,0E0,0E0,0E0,0E0,0E0,0E0,0E0,0E0,0E0,0E0,0E0,0E0,0E0,0E0],"parents":[2147483647,0,0,1,1,2,2,3,3,4,4,5,5,6,6,7,7,8,8,9,9,10,10,11,11,12,12,13,13,14,14],"right_children":[2,4,6,8,10,12,14,16,18,20,22,24,26,28,30,-1,-1,-1,-1,-1,-1,-1,-1,-1,-1,-1,-1,-1,-1,-1,-1],"split_conditions":[2.9163635E2,1.6724506E-2,2.97974E2,2.6592325E2,2.77115E2,2.617878E2,4.6282887E1,2.66409E2,-1.1394085E8,2.6152466E1,2.8593E2,2.5813446E7,2.921115E2,2.7823074E2,2.105424E1,7.9802686E-4,3.4236895E-5,2.0409462E-3,4.6989793E-4,-5.5210857E-4,-0E0,6.4806675E-4,-0E0,-0E0,-1.1787132E-4,-1.1846517E-3,-0E0,2.8806308E-4,-0E0,-0E0,-2.698113E-4],"split_indices":[7,29,4,5,4,23,16,4,34,12,4,32,5,5,12,0,0,0,0,0,0,0,0,0,0,0,0,0,0,0,0],"split_type":[0,0,0,0,0,0,0,0,0,0,0,0,0,0,0,0,0,0,0,0,0,0,0,0,0,0,0,0,0,0,0],"sum_hessian":[2.23E2,1.33E2,9E1,6E1,7.3E1,5.2E1,3.8E1,3.5E1,2.5E1,5E1,2.3E1,1.1E1,4.1E1,2.2E1,1.6E1,2.1E1,1.4E1,1.7E1,8E0,4.5E1,5E0,2.1E1,2E0,4E0,7E0,3.5E1,6E0,1.1E1,1.1E1,1E0,1.5E1],"tree_param":{"num_deleted":"0","num_feature":"55","num_nodes":"31","size_leaf_vector":"1"}},{"base_weights":[-4.0989812E-4,9.719595E-3,-1.7754449E-2,2.2698393E-2,-1.1217061E-2,-2.382717E-2,-0E0,3.624752E-2,4.5042876E-3,-2.5740562E-2,-0E0,-2.5995644E-2,-0E0,-5.346541E-4,4.7532018E-4,1.3020481E-3,1.208248E-4,-0E0,4.6023168E-4,-8.8382943E-4,-0E0,-0E0,9.760093E-5,-8.494143E-4,-0E0],"categories":[],"categories_nodes":[],"categories_segments":[],"categories_sizes":[],"default_left":[0,0,0,0,0,0,0,0,0,0,0,0,0,0,0,0,0,0,0,0,0,0,0,0,0],"id":37,"left_children":[1,3,5,7,9,11,13,15,17,19,21,23,-1,-1,-1,-1,-1,-1,-1,-1,-1,-1,-1,-1,-1],"loss_changes":[3.9101113E-2,3.7814915E-2,1.09919235E-2,1.6961776E-2,9.736534E-3,3.7517436E-3,5.486739E-3,5.685501E-3,2.4630392E-3,5.8920495E-4,1.058438E-4,2.0680986E-3,0E0,0E0,0E0,0E0,0E0,0E0,0E0,0E0,0E0,0E0,0E0,0E0,0E0],"parents":[2147483647,0,0,1,1,2,2,3,3,4,4,5,5,6,6,7,7,8,8,9,9,10,10,11,11],"right_children":[2,4,6,8,10,12,14,16,18,20,22,24,-1,-1,-1,-1,-1,-1,-1,-1,-1,-1,-1,-1,-1],"split_conditions":[1.9491124E7,2.9107E2,2.9126018E-2,2.4528272E-1,2.96965E2,4.635507E-2,2.4641203E2,5.9308624E1,2.77115E2,3.05055E2,3.019325E2,5.743807E-1,-0E0,-5.346541E-4,4.7532018E-4,1.3020481E-3,1.208248E-4,-0E0,4.6023168E-4,-8.8382943E-4,-0E0,-0E0,9.760093E-5,-8.494143E-4,-0E0],"split_indices":[32,2,28,31,3,45,23,35,4,4,3,31,0,0,0,0,0,0,0,0,0,0,0,0,0],"split_type":[0,0,0,0,0,0,0,0,0,0,0,0,0,0,0,0,0,0,0,0,0,0,0,0,0],"sum_hessian":[2.16E2,1.33E2,8.3E1,8.5E1,4.8E1,6.5E1,1.8E1,4.5E1,4E1,2.3E1,2.5E1,6E1,5E0,6E0,1.2E1,3.4E1,1.1E1,2.7E1,1.3E1,1.8E1,5E0,1.6E1,9E0,5.3E1,7E0],"tree_param":{"num_deleted":"0","num_feature":"55","num_nodes":"25","size_leaf_vector":"1"}},{"base_weights":[-0E0,2.8024646E-2,-5.9338463E-3,3.5120927E-2,-0E0,1.0882451E-2,-1.5994232E-2,1.42171E-3,4.536312E-2,2.7163455E-2,-0E0,-1.8559119E-2,6.0204156E-3,1.3725311E-4,-0E0,-0E0,1.4645377E-3,9.108064E-4,-0E0,-2.876261E-4,4.222378E-4,-0E0,-6.3109363E-4,-0E0,3.0852586E-4],"categories":[],"categories_nodes":[],"categories_segments":[],"categories_sizes":[],"default_left":[0,0,0,0,0,0,0,0,0,0,0,0,0,0,0,0,0,0,0,0,0,0,0,0,0],"id":38,"left_children":[1,3,5,7,-1,9,11,13,15,17,19,21,23,-1,-1,-1,-1,-1,-1,-1,-1,-1,-1,-1,-1],"loss_changes":[3.9394308E-2,7.7188313E-3,3.1475715E-2,6.6471025E-3,0E0,1.3699943E-2,8.028485E-3,1.2428718E-4,2.71729E-3,2.5675613E-3,4.767073E-3,5.4796822E-3,4.1414407E-4,0E0,0E0,0E0,0E0,0E0,0E0,0E0,0E0,0E0,0E0,0E0,0E0],"parents":[2147483647,0,0,1,1,2,2,3,3,5,5,6,6,7,7,8,8,9,9,10,10,11,11,12,12],"right_children":[2,4,6,8,-1,10,12,14,16,18,20,22,24,-1,-1,-1,-1,-1,-1,-1,-1,-1,-1,-1,-1],"split_conditions":[-3.594256E-2,-6.526946E7,-2.0478874E8,2.5086E2,-0E0,1.6811302E-2,8.779174E-2,2.66507E2,2.1109192E-3,7.309185E0,2.77115E2,-2.351901E-2,2.6891E2,1.3725311E-4,-0E0,-0E0,1.4645377E-3,9.108064E-4,-0E0,-2.876261E-4,4.222378E-4,-0E0,-6.3109363E-4,-0E0,3.0852586E-4],"split_indices":[37,34,34,5,0,28,46,4,40,22,4,46,2,0,0,0,0,0,0,0,0,0,0,0,0],"split_type":[0,0,0,0,0,0,0,0,0,0,0,0,0,0,0,0,0,0,0,0,0,0,0,0,0],"sum_hessian":[2.22E2,4.1E1,1.81E2,3.2E1,9E0,6.4E1,1.17E2,1E1,2.2E1,2.8E1,3.6E1,1.09E2,8E0,6E0,4E0,2E0,2E1,2.5E1,3E0,2.5E1,1.1E1,1.2E1,9.7E1,2E0,6E0],"tree_param":{"num_deleted":"0","num_feature":"55","num_nodes":"25","size_leaf_vector":"1"}},{"base_weights":[3.3028118E-4,7.7788956E-3,-2.211162E-2,3.0278118E-2,-4.5734346E-3,-3.6971625E-2,-5.480818E-3,1.5090461E-2,4.763135E-2,-1.6436491E-2,6.0684513E-3,-1.1470469E-3,-0E0,-4.920732E-4,-0E0,6.142452E-4,-0E0,-0E0,1.5457409E-3,-5.594071E-4,-0E0,5.8723317E-4,-3.5660956E-5],"categories":[],"categories_nodes":[],"categories_segments":[],"categories_sizes":[],"default_left":[0,0,0,0,0,0,0,0,0,0,0,0,0,0,0,0,0,0,0,0,0,0,0],"id":39,"left_children":[1,3,5,7,9,11,13,15,17,19,21,-1,-1,-1,-1,-1,-1,-1,-1,-1,-1,-1,-1],"loss_changes":[3.3006754E-2,4.6619963E-2,7.414542E-3,8.558776E-3,1.3761078E-2,6.282311E-4,2.1483772E-3,1.4440464E-3,1.3007969E-3,2.2939984E-3,6.6645765E-3,0E0,0E0,0E0,0E0,0E0,0E0,0E0,0E0,0E0,0E0,0E0,0E0],"parents":[2147483647,0,0,1,1,2,2,3,3,4,4,5,5,6,6,7,7,8,8,9,9,10,10],"right_children":[2,4,6,8,10,12,14,16,18,20,22,-1,-1,-1,-1,-1,-1,-1,-1,-1,-1,-1,-1],"split_conditions":[2.8375806E2,1.640837E-2,2.977377E2,2.7294E2,2.77115E2,2.97862E2,1.6263052E1,6.385508E0,-1.4857726E0,2.5225134E1,2.855977E2,-1.1470469E-3,-0E0,-4.920732E-4,-0E0,6.142452E-4,-0E0,-0E0,1.5457409E-3,-5.594071E-4,-0E0,5.8723317E-4,-3.5660956E-5],"split_indices":[23,29,8,4,4,4,14,22,10,12,8,0,0,0,0,0,0,0,0,0,0,0,0],"split_type":[0,0,0,0,0,0,0,0,0,0,0,0,0,0,0,0,0,0,0,0,0,0,0],"sum_hessian":[2.04E2,1.57E2,4.7E1,5.8E1,9.9E1,2.1E1,2.6E1,3.5E1,2.3E1,5.1E1,4.8E1,2E1,1E0,1E1,1.6E1,2.2E1,1.3E1,3E0,2E1,4.6E1,5E0,2.1E1,2.7E1],"tree_param":{"num_deleted":"0","num_feature":"55","num_nodes":"23","size_leaf_vector":"1"}},{"base_weights":[-5.258186E-4,8.918324E-3,-1.6584516E-2,3.0017922E-2,-5.3328993E-3,1.3434583E-3,-2.3659945E-2,3.4529474E-2,-0E0,-1.594363E-2,1.5038897E-2,6.8891584E-3,-0E0,-2.696784E-2,-0E0,1.2629154E-3,2.522211E-4,-5.2778836E-4,-0E0,6.106152E-4,-0E0,2.2321568E-4,-0E0,-9.277741E-4,-0E0],"categories":[],"categories_nodes":[],"categories_segments":[],"categories_sizes":[],"default_left":[0,0,0,0,0,0,0,0,0,0,0,0,0,0,0,0,0,0,0,0,0,0,0,0,0],"id":40,"left_children":[1,3,5,7,9,11,13,15,-1,17,19,21,-1,23,-1,-1,-1,-1,-1,-1,-1,-1,-1,-1,-1],"loss_changes":[3.397654E-2,4.2921726E-2,1.3045523E-2,5.8683455E-3,1.71907E-2,5.3162355E-4,2.8857328E-3,4.0844753E-3,0E0,2.1136478E-3,3.2718144E-3,3.9449136E-5,0E0,3.7659667E-3,0E0,0E0,0E0,0E0,0E0,0E0,0E0,0E0,0E0,0E0,0E0],"parents":[2147483647,0,0,1,1,2,2,3,3,4,4,5,5,6,6,7,7,9,9,10,10,11,11,13,13],"right_children":[2,4,6,8,10,12,14,16,-1,18,20,22,-1,24,-1,-1,-1,-1,-1,-1,-1,-1,-1,-1,-1],"split_conditions":[2.931665E2,2.654933E-1,-2.6059588E-2,6.6664066E0,2.633885E2,2.783185E2,4.427987E6,5.9308624E1,-0E0,2.6152466E1,2.888865E2,7.913215E-1,-0E0,1.4585469E0,-0E0,1.2629154E-3,2.522211E-4,-5.2778836E-4,-0E0,6.106152E-4,-0E0,2.2321568E-4,-0E0,-9.277741E-4,-0E0],"split_indices":[7,31,37,22,5,5,34,35,0,12,5,33,0,10,0,0,0,0,0,0,0,0,0,0,0],"split_type":[0,0,0,0,0,0,0,0,0,0,0,0,0,0,0,0,0,0,0,0,0,0,0,0,0],"sum_hessian":[2.17E2,1.33E2,8.4E1,5.6E1,7.7E1,2E1,6.4E1,4.7E1,9E0,5.4E1,2.3E1,1.1E1,9E0,5.3E1,1.1E1,3.3E1,1.4E1,5.1E1,3E0,2E1,3E0,1E1,1E0,4.4E1,9E0],"tree_param":{"num_deleted":"0","num_feature":"55","num_nodes":"25","size_leaf_vector":"1"}},{"base_weights":[3.4886066E-4,1.0756557E-2,-1.525353E-2,3.0105822E-2,-3.8541143E-3,-2.4194308E-2,-0E0,1.636903E-2,4.578151E-2,-1.4285277E-2,1.517529E-2,-0E0,-2.8301604E-2,-7.3596593E-3,3.288099E-3,-0E0,6.1799015E-4,-0E0,1.4453972E-3,-5.09566E-4,-0E0,4.9884664E-4,-0E0,-1.0677618E-3,-0E0,-0E0,-2.3125538E-4,-0E0,2.2691632E-4],"categories":[],"categories_nodes":[],"categories_segments":[],"categories_sizes":[],"default_left":[0,0,0,0,0,0,0,0,0,0,0,0,0,0,0,0,0,0,0,0,0,0,0,0,0,0,0,0,0],"id":41,"left_children":[1,3,5,7,9,11,13,15,17,19,21,-1,23,25,27,-1,-1,-1,-1,-1,-1,-1,-1,-1,-1,-1,-1,-1,-1],"loss_changes":[3.560145E-2,4.147189E-2,1.0076627E-2,6.3862354E-3,1.5213691E-2,7.792508E-3,1.1262184E-3,8.510938E-4,9.913072E-4,3.0327365E-3,8.3250273E-4,0E0,7.958509E-3,2.9940857E-5,3.667021E-4,0E0,0E0,0E0,0E0,0E0,0E0,0E0,0E0,0E0,0E0,0E0,0E0,0E0,0E0],"parents":[2147483647,0,0,1,1,2,2,3,3,4,4,5,5,6,6,7,7,8,8,9,9,10,10,12,12,13,13,14,14],"right_children":[2,4,6,8,10,12,14,16,18,20,22,-1,24,26,28,-1,-1,-1,-1,-1,-1,-1,-1,-1,-1,-1,-1,-1,-1],"split_conditions":[2.9107E2,1.6724506E-2,2.98205E2,2.6592325E2,2.77115E2,2.83812E2,2.298893E1,-7.3854935E-1,-1.4857726E0,2.5225134E1,2.888865E2,-0E0,2.900255E2,9.396403E-3,8.242743E0,-0E0,6.1799015E-4,-0E0,1.4453972E-3,-5.09566E-4,-0E0,4.9884664E-4,-0E0,-1.0677618E-3,-0E0,-0E0,-2.3125538E-4,-0E0,2.2691632E-4],"split_indices":[2,29,4,5,4,4,14,10,10,12,5,0,5,29,26,0,0,0,0,0,0,0,0,0,0,0,0,0,0],"split_type":[0,0,0,0,0,0,0,0,0,0,0,0,0,0,0,0,0,0,0,0,0,0,0,0,0,0,0,0,0],"sum_hessian":[2.2E2,1.36E2,8.4E1,6.1E1,7.5E1,5E1,3.4E1,3.7E1,2.4E1,5.2E1,2.3E1,4E0,4.6E1,1.6E1,1.8E1,1.2E1,2.5E1,2E0,2.2E1,4.7E1,5E0,2.2E1,1E0,3.5E1,1.1E1,1E0,1.5E1,9E0,9E0],"tree_param":{"num_deleted":"0","num_feature":"55","num_nodes":"29","size_leaf_vector":"1"}},{"base_weights":[1.1843354E-3,4.9622823E-2,-1.522782E-3,1.7029374E-3,-0E0,2.4610132E-2,-5.6388294E-3,3.1487703E-2,-0E0,-1.5803657E-3,-2.7175337E-2,-0E0,9.879391E-4,-6.024919E-4,-0E0,-0E0,-8.7238825E-4],"categories":[],"categories_nodes":[],"categories_segments":[],"categories_sizes":[],"default_left":[0,0,0,0,0,0,0,0,0,0,0,0,0,0,0,0,0],"id":42,"left_children":[1,3,5,-1,-1,7,9,11,-1,13,15,-1,-1,-1,-1,-1,-1],"loss_changes":[3.465178E-2,9.70453E-4,2.1260405E-2,0E0,0E0,4.0823855E-3,1.36010535E-2,7.7543594E-4,0E0,6.0436726E-3,1.939619E-3,0E0,0E0,0E0,0E0,0E0,0E0],"parents":[2147483647,0,0,1,1,2,2,5,5,6,6,7,7,9,9,10,10],"right_children":[2,4,6,-1,-1,8,10,12,-1,14,16,-1,-1,-1,-1,-1,-1],"split_conditions":[-4.338079E0,-1.1394085E8,-2.7621872E8,1.7029374E-3,-0E0,2.6705463E1,1.16689816E-1,-3.313833E0,-0E0,2.44796E2,1.2662527E1,-0E0,9.879391E-4,-6.024919E-4,-0E0,-0E0,-8.7238825E-4],"split_indices":[11,34,34,0,0,14,48,11,0,5,12,0,0,0,0,0,0],"split_type":[0,0,0,0,0,0,0,0,0,0,0,0,0,0,0,0,0],"sum_hessian":[2.26E2,1.3E1,2.13E2,1E1,3E0,2.5E1,1.88E2,1.9E1,6E0,1.63E2,2.5E1,1E0,1.8E1,1.5E1,1.48E2,1E0,2.4E1],"tree_param":{"num_deleted":"0","num_feature":"55","num_nodes":"17","size_leaf_vector":"1"}},{"base_weights":[1.3892496E-3,1.570066E-3,-9.197422E-4,1.7879806E-2,-6.6631655E-3,2.7142597E-2,-0E0,-1.5390953E-3,-2.4379868E-2,-0E0,1.1367525E-3,-0E0,1.10784466E-4,-4.865678E-4,4.1443185E-5,-0E0,-8.0646534E-4],"categories":[],"categories_nodes":[],"categories_segments":[],"categories_sizes":[],"default_left":[0,0,0,0,0,0,0,0,0,0,0,0,0,0,0,0,0],"id":43,"left_children":[1,-1,3,5,7,9,11,13,15,-1,-1,-1,-1,-1,-1,-1,-1],"loss_changes":[2.9892972E-2,0E0,2.0592224E-2,6.1448934E-3,1.17140785E-2,4.5168865E-3,1.0909509E-4,6.993893E-3,1.0858756E-3,0E0,0E0,0E0,0E0,0E0,0E0,0E0,0E0],"parents":[2147483647,0,0,2,2,3,3,4,4,5,5,6,6,7,7,8,8],"right_children":[2,-1,4,6,8,10,12,14,16,-1,-1,-1,-1,-1,-1,-1,-1],"split_conditions":[-8.583424E-2,1.570066E-3,-2.474826E8,1.7247483E-2,1.0536624E-1,2.5086E2,2.77115E2,6.1440887E0,1.372872E-2,-0E0,1.1367525E-3,-0E0,1.10784466E-4,-4.865678E-4,4.1443185E-5,-0E0,-8.0646534E-4],"split_indices":[48,0,34,29,48,5,4,26,47,0,0,0,0,0,0,0,0],"split_type":[0,0,0,0,0,0,0,0,0,0,0,0,0,0,0,0,0],"sum_hessian":[2.09E2,1E1,1.99E2,4.2E1,1.57E2,2.6E1,1.6E1,1.27E2,3E1,1E1,1.6E1,9E0,7E0,2.6E1,1.01E2,4E0,2.6E1],"tree_param":{"num_deleted":"0","num_feature":"55","num_nodes":"17","size_leaf_vector":"1"}},{"base_weights":[-0E0,1.0404733E-2,-1.7354548E-2,3.0209E-2,-3.1728593E-3,-2.9261969E-2,-0E0,3.7009817E-2,9.038387E-3,-1.481932E-2,1.4582226E-2,-3.4183014E-2,-0E0,-1.7145491E-4,2.8583382E-3,1.5348796E-5,1.3309127E-3,3.634361E-4,-0E0,-4.959966E-4,-0E0,5.738946E-4,-0E0,-1.0451628E-3,-0E0,-0E0,1.2890506E-4],"categories":[],"categories_nodes":[],"categories_segments":[],"categories_sizes":[],"default_left":[0,0,0,0,0,0,0,0,0,0,0,0,0,0,0,0,0,0,0,0,0,0,0,0,0,0,0],"id":44,"left_children":[1,3,5,7,9,11,13,15,17,19,21,23,-1,-1,25,-1,-1,-1,-1,-1,-1,-1,-1,-1,-1,-1,-1],"loss_changes":[3.7504602E-2,3.9100185E-2,1.4785856E-2,3.4113638E-3,1.6368955E-2,6.7266226E-3,6.451783E-4,6.225981E-3,7.9603563E-4,1.9204477E-3,2.8288444E-3,5.061701E-4,0E0,0E0,6.632172E-5,0E0,0E0,0E0,0E0,0E0,0E0,0E0,0E0,0E0,0E0,0E0,0E0],"parents":[2147483647,0,0,1,1,2,2,3,3,4,4,5,5,6,6,7,7,8,8,9,9,10,10,11,11,14,14],"right_children":[2,4,6,8,10,12,14,16,18,20,22,24,-1,-1,26,-1,-1,-1,-1,-1,-1,-1,-1,-1,-1,-1,-1],"split_conditions":[2.9381E2,1.6309861E-2,2.97519E2,-8.96168E-1,2.77115E2,2.921115E2,2.298893E1,2.5086E2,2.7396542E2,2.6152466E1,2.8593E2,1.0130138E1,-0E0,-1.7145491E-4,2.27777E1,1.5348796E-5,1.3309127E-3,3.634361E-4,-0E0,-4.959966E-4,-0E0,5.738946E-4,-0E0,-1.0451628E-3,-0E0,-0E0,1.2890506E-4],"split_indices":[3,29,4,9,4,5,14,5,8,12,4,22,0,0,12,0,0,0,0,0,0,0,0,0,0,0,0],"split_type":[0,0,0,0,0,0,0,0,0,0,0,0,0,0,0,0,0,0,0,0,0,0,0,0,0,0,0],"sum_hessian":[2.09E2,1.34E2,7.5E1,5.7E1,7.7E1,4.3E1,3.2E1,3.9E1,1.8E1,5E1,2.7E1,3.7E1,6E0,1.4E1,1.8E1,9E0,3E1,1.5E1,3E0,4.7E1,3E0,2.3E1,4E0,3.6E1,1E0,7E0,1.1E1],"tree_param":{"num_deleted":"0","num_feature":"55","num_nodes":"27","size_leaf_vector":"1"}},{"base_weights":[-0E0,1.7422939E-2,-7.211798E-3,4.4022508E-2,9.537973E-3,7.6728705E-3,-1.55638205E-2,-0E0,1.4072022E-3,-0E0,1.4162359E-2,1.4842062E-2,-6.732617E-3,-1.7878072E-2,1.3634097E-3,-4.338784E-5,-0E0,5.502341E-4,-0E0,6.209162E-4,-0E0,-2.3540175E-4,-0E0,-5.8308034E-4,-0E0,-0E0,1.230514E-4],"categories":[],"categories_nodes":[],"categories_segments":[],"categories_sizes":[],"default_left":[0,0,0,0,0,0,0,0,0,0,0,0,0,0,0,0,0,0,0,0,0,0,0,0,0,0,0],"id":45,"left_children":[1,3,5,7,9,11,13,-1,-1,15,17,19,21,23,25,-1,-1,-1,-1,-1,-1,-1,-1,-1,-1,-1,-1],"loss_changes":[2.672617E-2,7.2277393E-3,1.980471E-2,6.84632E-4,3.492877E-3,6.177931E-3,5.6715794E-3,0E0,0E0,1.6733376E-5,3.214039E-3,3.8316716E-3,1.4958752E-4,2.8783288E-3,8.6073225E-5,0E0,0E0,0E0,0E0,0E0,0E0,0E0,0E0,0E0,0E0,0E0,0E0],"parents":[2147483647,0,0,1,1,2,2,3,3,4,4,5,5,6,6,9,9,10,10,11,11,12,12,13,13,14,14],"right_children":[2,4,6,8,10,12,14,-1,-1,16,18,20,22,24,26,-1,-1,-1,-1,-1,-1,-1,-1,-1,-1,-1,-1],"split_conditions":[-2.1804012E-2,-5.385824E0,-2.0222752E8,1.8793781E-3,1.1259797E-2,2.4982199E1,8.779174E-2,-0E0,1.4072022E-3,2.9836777E2,1.9660064E7,7.4571714E-2,2.75624E2,2.3437597E-2,2.6891E2,-4.338784E-5,-0E0,5.502341E-4,-0E0,6.209162E-4,-0E0,-2.3540175E-4,-0E0,-5.8308034E-4,-0E0,-0E0,1.230514E-4],"split_indices":[37,9,34,40,28,14,46,0,0,8,32,48,4,30,2,0,0,0,0,0,0,0,0,0,0,0,0],"split_type":[0,0,0,0,0,0,0,0,0,0,0,0,0,0,0,0,0,0,0,0,0,0,0,0,0,0,0],"sum_hessian":[2.12E2,6.1E1,1.51E2,1E1,5.1E1,5E1,1.01E2,1E0,9E0,1.1E1,4E1,3.8E1,1.2E1,9.4E1,7E0,7E0,4E0,3.3E1,7E0,2.8E1,1E1,1.1E1,1E0,8.7E1,7E0,2E0,5E0],"tree_param":{"num_deleted":"0","num_feature":"55","num_nodes":"27","size_leaf_vector":"1"}},{"base_weights":[-0E0,9.823569E-3,-1.3862387E-2,2.7663965E-2,-5.277677E-3,-2.3755135E-2,-0E0,-0E0,3.21042E-2,-1.5420567E-2,1.2653723E-2,-3.109383E-2,-0E0,2.2231494E-3,-4.2795944E-3,6.5178436E-5,-0E0,1.2146666E-3,2.2589683E-4,-0E0,-5.14249E-4,4.7460792E-4,-0E0,-0E0,-1.0273068E-3,-0E0,1.0617266E-4,-0E0,-1.3515883E-4],"categories":[],"categories_nodes":[],"categories_segments":[],"categories_sizes":[],"default_left":[0,0,0,0,0,0,0,0,0,0,0,0,0,0,0,0,0,0,0,0,0,0,0,0,0,0,0,0,0],"id":46,"left_children":[1,3,5,7,9,11,13,15,17,19,21,23,-1,25,27,-1,-1,-1,-1,-1,-1,-1,-1,-1,-1,-1,-1,-1,-1],"loss_changes":[3.1092264E-2,3.9294105E-2,1.2036823E-2,5.147245E-3,1.35669E-2,7.7979844E-3,4.616587E-4,4.7202542E-5,6.0198233E-3,1.6267439E-3,1.5732122E-3,5.6807697E-3,0E0,1.2430278E-4,1.737455E-5,0E0,0E0,0E0,0E0,0E0,0E0,0E0,0E0,0E0,0E0,0E0,0E0,0E0,0E0],"parents":[2147483647,0,0,1,1,2,2,3,3,4,4,5,5,6,6,7,7,8,8,9,9,10,10,11,11,13,13,14,14],"right_children":[2,4,6,8,10,12,14,16,18,20,22,24,-1,26,28,-1,-1,-1,-1,-1,-1,-1,-1,-1,-1,-1,-1,-1,-1],"split_conditions":[2.931665E2,1.6724506E-2,2.97862E2,2.5086E2,2.77115E2,2.900255E2,4.626383E1,2.6903845E2,1.8247458E-3,2.0677309E1,2.8593E2,2.83812E2,-0E0,1.849804E1,9.063649E-3,6.5178436E-5,-0E0,1.2146666E-3,2.2589683E-4,-0E0,-5.14249E-4,4.7460792E-4,-0E0,-0E0,-1.0273068E-3,-0E0,1.0617266E-4,-0E0,-1.3515883E-4],"split_indices":[7,29,4,5,4,5,15,25,37,17,4,4,0,12,28,0,0,0,0,0,0,0,0,0,0,0,0,0,0],"split_type":[0,0,0,0,0,0,0,0,0,0,0,0,0,0,0,0,0,0,0,0,0,0,0,0,0,0,0,0,0],"sum_hessian":[2.28E2,1.36E2,9.2E1,6.5E1,7.1E1,5.2E1,4E1,1.2E1,5.3E1,4.9E1,2.2E1,3.8E1,1.4E1,2.2E1,1.8E1,9E0,3E0,3.6E1,1.7E1,4E0,4.5E1,2E1,2E0,2E0,3.6E1,4E0,1.8E1,1E0,1.7E1],"tree_param":{"num_deleted":"0","num_feature":"55","num_nodes":"29","size_leaf_vector":"1"}},{"base_weights":[-0E0,9.219223E-3,-1.543067E-2,-2.1270715E-2,1.7167127E-2,-2.7112754E-2,-0E0,-0E0,-2.3384502E-2,6.6892467E-3,3.0056631E-2,-3.3025626E-2,-0E0,7.961879E-3,-3.437431E-3,-7.2448916E-4,-0E0,5.171708E-4,-0E0,1.0410622E-3,-0E0,-0E0,-1.0060471E-3,-0E0,2.7907916E-4,-1.3707434E-4,-0E0],"categories":[],"categories_nodes":[],"categories_segments":[],"categories_sizes":[],"default_left":[0,0,0,0,0,0,0,0,0,0,0,0,0,0,0,0,0,0,0,0,0,0,0,0,0,0,0],"id":47,"left_children":[1,3,5,7,9,11,13,-1,15,17,19,21,-1,23,25,-1,-1,-1,-1,-1,-1,-1,-1,-1,-1,-1,-1],"loss_changes":[3.05564E-2,3.4123488E-2,1.4507329E-2,9.080684E-4,1.1655644E-2,5.094655E-3,1.0324646E-3,0E0,2.896767E-4,5.5308617E-3,8.1179775E-3,6.183237E-5,0E0,1.0469253E-4,1.6665235E-4,0E0,0E0,0E0,0E0,0E0,0E0,0E0,0E0,0E0,0E0,0E0,0E0],"parents":[2147483647,0,0,1,1,2,2,3,3,4,4,5,5,6,6,8,8,9,9,10,10,11,11,13,13,14,14],"right_children":[2,4,6,8,10,12,14,-1,16,18,20,22,-1,24,26,-1,-1,-1,-1,-1,-1,-1,-1,-1,-1,-1,-1],"split_conditions":[2.9237E2,2.4731625E2,2.98205E2,-7.962963E1,2.6501624E2,2.85982E2,1.6846327E1,-0E0,4.507889E-2,2.6389792E2,2.888865E2,3.1172955E1,-0E0,2.997625E2,3.371869E-2,-7.2448916E-4,-0E0,5.171708E-4,-0E0,1.0410622E-3,-0E0,-0E0,-1.0060471E-3,-0E0,2.7907916E-4,-1.3707434E-4,-0E0],"split_indices":[3,5,4,21,5,5,13,0,39,7,5,35,0,3,38,0,0,0,0,0,0,0,0,0,0,0,0],"split_type":[0,0,0,0,0,0,0,0,0,0,0,0,0,0,0,0,0,0,0,0,0,0,0,0,0,0,0],"sum_hessian":[2.17E2,1.4E2,7.7E1,2.6E1,1.14E2,4.4E1,3.3E1,3E0,2.3E1,6.8E1,4.6E1,3.4E1,1E1,1.1E1,2.2E1,2.2E1,1E0,2.8E1,4E1,4.1E1,5E0,1E0,3.3E1,2E0,9E0,2E1,2E0],"tree_param":{"num_deleted":"0","num_feature":"55","num_nodes":"27","size_leaf_vector":"1"}},{"base_weights":[1.2053812E-3,9.495846E-3,-1.3726668E-2,-2.0468624E-2,1.6025294E-2,-0E0,-1.7834382E-2,-0E0,-2.2769798E-2,2.7624886E-2,5.2538235E-3,-2.148386E-2,-0E0,-7.218569E-4,-0E0,-0E0,1.0010336E-3,-2.6055248E-4,2.9084168E-4,-1.5622706E-4,-8.8931393E-4],"categories":[],"categories_nodes":[],"categories_segments":[],"categories_sizes":[],"default_left":[0,0,0,0,0,0,0,0,0,0,0,0,0,0,0,0,0,0,0,0,0],"id":48,"left_children":[1,3,5,7,9,-1,11,-1,13,15,17,19,-1,-1,-1,-1,-1,-1,-1,-1,-1],"loss_changes":[2.7065659E-2,2.8644443E-2,4.952305E-3,8.3258655E-4,1.2060132E-2,0E0,2.6092324E-3,0E0,1.1278782E-4,1.1471245E-2,4.518253E-3,2.602728E-3,0E0,0E0,0E0,0E0,0E0,0E0,0E0,0E0,0E0],"parents":[2147483647,0,0,1,1,2,2,3,3,4,4,6,6,8,8,9,9,10,10,11,11],"right_children":[2,4,6,8,10,-1,12,-1,14,16,18,20,-1,-1,-1,-1,-1,-1,-1,-1,-1],"split_conditions":[-5.102296E7,2.45949E2,-1.2191833E-2,-7.962963E1,-8.659985E-1,-0E0,4.800613E6,-0E0,6.924135E1,5.5129666E0,1.4843932E1,2.855721E2,-0E0,-7.218569E-4,-0E0,-0E0,1.0010336E-3,-2.6055248E-4,2.9084168E-4,-1.5622706E-4,-8.8931393E-4],"split_indices":[34,5,36,21,9,0,34,0,35,26,14,23,0,0,0,0,0,0,0,0,0],"split_type":[0,0,0,0,0,0,0,0,0,0,0,0,0,0,0,0,0,0,0,0,0],"sum_hessian":[2.2E2,1.46E2,7.4E1,2.3E1,1.23E2,1.5E1,5.9E1,3E0,2E1,5.4E1,6.9E1,4.6E1,1.3E1,1.8E1,2E0,7E0,4.7E1,1.1E1,5.8E1,2E1,2.6E1],"tree_param":{"num_deleted":"0","num_feature":"55","num_nodes":"21","size_leaf_vector":"1"}},{"base_weights":[1.3554776E-3,4.43674E-2,-7.864316E-4,1.4121319E-3,-0E0,2.0384753E-2,-5.716864E-3,2.2142956E-2,-0E0,-9.045988E-3,7.7859843E-3,4.138265E-6,8.781002E-4,2.3410699E-4,-3.4295212E-4,-4.1956073E-4,5.393463E-4],"categories":[],"categories_nodes":[],"categories_segments":[],"categories_sizes":[],"default_left":[0,0,0,0,0,0,0,0,0,0,0,0,0,0,0,0,0],"id":49,"left_children":[1,3,5,-1,-1,7,9,11,-1,13,15,-1,-1,-1,-1,-1,-1],"loss_changes":[2.530596E-2,9.981636E-4,2.1092113E-2,0E0,0E0,1.7859545E-3,8.242957E-3,2.5442485E-3,0E0,6.4818487E-3,7.30767E-3,0E0,0E0,0E0,0E0,0E0,0E0],"parents":[2147483647,0,0,1,1,2,2,5,5,6,6,7,7,9,9,10,10],"right_children":[2,4,6,-1,-1,8,10,12,-1,14,16,-1,-1,-1,-1,-1,-1],"split_conditions":[-4.338079E0,-1.1394085E8,-2.6237886E8,1.4121319E-3,-0E0,3.107796E-2,2.7919598E-2,2.5086E2,-0E0,2.6377304E2,2.4569211E2,4.138265E-6,8.781002E-4,2.3410699E-4,-3.4295212E-4,-4.1956073E-4,5.393463E-4],"split_indices":[11,34,34,0,0,44,28,5,0,7,23,0,0,0,0,0,0],"split_type":[0,0,0,0,0,0,0,0,0,0,0,0,0,0,0,0,0],"sum_hessian":[2.26E2,1.2E1,2.14E2,1.1E1,1E0,3.6E1,1.78E2,3.4E1,2E0,1.49E2,2.9E1,1.2E1,2.2E1,1.3E1,1.36E2,6E0,2.3E1],"tree_param":{"num_deleted":"0","num_feature":"55","num_nodes":"17","size_leaf_vector":"1"}},{"base_weights":[1.3231691E-3,4.1420378E-2,-9.67346E-4,-0E0,4.3689374E-2,1.812363E-2,-6.8732304E-3,1.3751236E-3,-0E0,2.5481012E-2,-0E0,-6.795368E-4,-1.9490553E-2,-0E0,8.7939826E-4,-0E0,8.290514E-5,-5.6303036E-4,1.9958072E-5,-1.2888827E-5,-7.147422E-4],"categories":[],"categories_nodes":[],"categories_segments":[],"categories_sizes":[],"default_left":[0,0,0,0,0,0,0,0,0,0,0,0,0,0,0,0,0,0,0,0,0],"id":50,"left_children":[1,3,5,-1,7,9,11,-1,-1,13,15,17,19,-1,-1,-1,-1,-1,-1,-1,-1],"loss_changes":[2.3831671E-2,7.948335E-4,2.1774845E-2,0E0,3.9896928E-4,4.376672E-3,1.0395251E-2,0E0,0E0,1.7932616E-3,8.400655E-5,4.571456E-3,1.4471672E-3,0E0,0E0,0E0,0E0,0E0,0E0,0E0,0E0],"parents":[2147483647,0,0,1,1,2,2,4,4,5,5,6,6,9,9,10,10,11,11,12,12],"right_children":[2,4,6,-1,8,10,12,-1,-1,14,16,18,20,-1,-1,-1,-1,-1,-1,-1,-1],"split_conditions":[-4.338079E0,1.8793781E-3,-2.474826E8,-0E0,1.8772563E-2,1.6811302E-2,8.500496E-2,1.3751236E-3,-0E0,-3.2842262E0,2.75487E2,7.373752E-3,2.557777E0,-0E0,8.7939826E-4,-0E0,8.290514E-5,-5.6303036E-4,1.9958072E-5,-1.2888827E-5,-7.147422E-4],"split_indices":[11,40,34,0,0,28,48,0,0,9,4,28,9,0,0,0,0,0,0,0,0],"split_type":[0,0,0,0,0,0,0,0,0,0,0,0,0,0,0,0,0,0,0,0,0],"sum_hessian":[2.14E2,1.3E1,2.01E2,1E0,1.2E1,4.3E1,1.58E2,1.1E1,1E0,2.8E1,1.5E1,1.12E2,4.6E1,5E0,2.3E1,5E0,1E1,1.2E1,1E2,1.3E1,3.3E1],"tree_param":{"num_deleted":"0","num_feature":"55","num_nodes":"21","size_leaf_vector":"1"}},{"base_weights":[-6.1075925E-4,6.107728E-3,-1.437034E-2,2.1400703E-2,-4.122451E-3,-2.5435766E-2,-0E0,-0E0,2.5147956E-2,-1.3637768E-2,9.666739E-3,-2.8218139E-2,-0E0,3.7713002E-3,-3.664825E-3,-0E0,8.2413084E-4,-4.702752E-4,-0E0,4.2860935E-4,-0E0,-9.526908E-4,-0E0,-0E0,2.0167904E-4,-0E0,-1.2037502E-4],"categories":[],"categories_nodes":[],"categories_segments":[],"categories_sizes":[],"default_left":[0,0,0,0,0,0,0,0,0,0,0,0,0,0,0,0,0,0,0,0,0,0,0,0,0,0,0],"id":51,"left_children":[1,3,5,7,9,11,13,-1,15,17,19,21,-1,23,25,-1,-1,-1,-1,-1,-1,-1,-1,-1,-1,-1,-1],"loss_changes":[2.1713834E-2,2.4814181E-2,1.2799995E-2,3.4000278E-3,1.168166E-2,1.9402504E-3,4.9855746E-4,0E0,2.4608336E-3,2.0572199E-3,2.6143577E-3,2.2251215E-3,0E0,2.2690056E-4,2.927659E-5,0E0,0E0,0E0,0E0,0E0,0E0,0E0,0E0,0E0,0E0,0E0,0E0],"parents":[2147483647,0,0,1,1,2,2,3,3,4,4,5,5,6,6,8,8,9,9,10,10,11,11,13,13,14,14],"right_children":[2,4,6,8,10,12,14,-1,16,18,20,22,-1,24,26,-1,-1,-1,-1,-1,-1,-1,-1,-1,-1,-1,-1],"split_conditions":[2.9381E2,1.6724506E-2,2.98205E2,5.991084E0,2.77115E2,3.0028424E2,4.6282887E1,-0E0,1.5120285E1,2.6152466E1,3.95E1,2.4424901E-2,-0E0,2.9962442E2,3.4506658E-1,-0E0,8.2413084E-4,-4.702752E-4,-0E0,4.2860935E-4,-0E0,-9.526908E-4,-0E0,-0E0,2.0167904E-4,-0E0,-1.2037502E-4],"split_indices":[3,29,4,26,4,23,16,0,14,12,19,29,0,8,27,0,0,0,0,0,0,0,0,0,0,0,0],"split_type":[0,0,0,0,0,0,0,0,0,0,0,0,0,0,0,0,0,0,0,0,0,0,0,0,0,0,0],"sum_hessian":[2.24E2,1.46E2,7.8E1,6.2E1,8.4E1,4.4E1,3.4E1,1.2E1,5E1,5.4E1,3E1,3.8E1,6E0,1.8E1,1.6E1,5E0,4.5E1,4.9E1,5E0,2.6E1,4E0,3.2E1,6E0,8E0,1E1,1E0,1.5E1],"tree_param":{"num_deleted":"0","num_feature":"55","num_nodes":"27","size_leaf_vector":"1"}},{"base_weights":[1.8932462E-4,8.870304E-3,-1.26773715E-2,-5.6409807E-4,3.2379776E-2,-2.2365917E-2,-0E0,8.592544E-3,-1.3151313E-2,4.6829697E-2,1.5424433E-2,-0E0,-2.4520226E-2,-3.4824498E-3,1.6056504E-3,3.677592E-4,-0E0,-4.5565513E-4,-0E0,1.4538007E-3,-0E0,5.2079064E-4,-0E0,-8.206539E-4,-0E0,-1.1301998E-4,-0E0,-0E0,9.8613855E-5],"categories":[],"categories_nodes":[],"categories_segments":[],"categories_sizes":[],"default_left":[0,0,0,0,0,0,0,0,0,0,0,0,0,0,0,0,0,0,0,0,0,0,0,0,0,0,0,0,0],"id":52,"left_children":[1,3,5,7,9,11,13,15,17,19,21,-1,23,25,27,-1,-1,-1,-1,-1,-1,-1,-1,-1,-1,-1,-1,-1,-1],"loss_changes":[2.4193063E-2,3.3364337E-2,1.0010887E-2,1.15182595E-2,3.3424087E-3,3.5448559E-3,2.4378658E-4,1.6444509E-3,1.6752509E-3,6.0334057E-4,9.199786E-4,0E0,2.8762612E-3,2.59449E-6,1.00203506E-4,0E0,0E0,0E0,0E0,0E0,0E0,0E0,0E0,0E0,0E0,0E0,0E0,0E0,0E0],"parents":[2147483647,0,0,1,1,2,2,3,3,4,4,5,5,6,6,7,7,8,8,9,9,10,10,12,12,13,13,14,14],"right_children":[2,4,6,8,10,12,14,16,18,20,22,-1,24,26,28,-1,-1,-1,-1,-1,-1,-1,-1,-1,-1,-1,-1,-1,-1],"split_conditions":[2.9051428E2,2.6501624E2,2.98205E2,1.7938114E7,2.7915057E2,2.83812E2,2.132348E1,2.652164E2,2.6152466E1,1.4687675E-1,1.5064563E-2,-0E0,2.921115E2,2.810565E2,2.27777E1,3.677592E-4,-0E0,-4.5565513E-4,-0E0,1.4538007E-3,-0E0,5.2079064E-4,-0E0,-8.206539E-4,-0E0,-1.1301998E-4,-0E0,-0E0,9.8613855E-5],"split_indices":[7,5,4,32,7,4,14,23,12,0,0,0,5,5,12,0,0,0,0,0,0,0,0,0,0,0,0,0,0],"split_type":[0,0,0,0,0,0,0,0,0,0,0,0,0,0,0,0,0,0,0,0,0,0,0,0,0,0,0,0,0],"sum_hessian":[2.18E2,1.35E2,8.3E1,9.4E1,4.1E1,4.6E1,3.7E1,5E1,4.4E1,1.8E1,2.3E1,2E0,4.4E1,1.4E1,2.3E1,3.5E1,1.5E1,4E1,4E0,1.7E1,1E0,2.1E1,2E0,3.9E1,5E0,1.2E1,2E0,9E0,1.4E1],"tree_param":{"num_deleted":"0","num_feature":"55","num_nodes":"29","size_leaf_vector":"1"}},{"base_weights":[3.0975626E-3,1.0610929E-2,-9.694934E-3,-0E0,2.7077913E-2,-1.9753676E-2,-0E0,8.750139E-3,-1.1229493E-2,3.4884956E-2,-0E0,-2.4545437E-2,-0E0,4.717914E-3,-1.9659668E-3,4.38463E-4,-0E0,-4.268452E-4,-0E0,1.6739639E-3,6.606977E-4,1.2763737E-4,-0E0,-7.7116274E-4,-0E0,1.7245895E-4,-0E0,-9.249433E-5,-0E0],"categories":[],"categories_nodes":[],"categories_segments":[],"categories_sizes":[],"default_left":[0,0,0,0,0,0,0,0,0,0,0,0,0,0,0,0,0,0,0,0,0,0,0,0,0,0,0,0,0],"id":53,"left_children":[1,3,5,7,9,11,13,15,17,19,21,23,-1,25,27,-1,-1,-1,-1,-1,-1,-1,-1,-1,-1,-1,-1,-1,-1],"loss_changes":[2.1339705E-2,2.3380304E-2,8.370945E-3,8.876827E-3,1.0301847E-2,4.27348E-3,4.818223E-4,2.1972558E-3,1.8123528E-3,2.0174123E-3,1.0860865E-4,6.02046E-4,0E0,6.199797E-5,9.944427E-5,0E0,0E0,0E0,0E0,0E0,0E0,0E0,0E0,0E0,0E0,0E0,0E0,0E0,0E0],"parents":[2147483647,0,0,1,1,2,2,3,3,4,4,5,5,6,6,7,7,8,8,9,9,10,10,11,11,13,13,14,14],"right_children":[2,4,6,8,10,12,14,16,18,20,22,24,-1,26,28,-1,-1,-1,-1,-1,-1,-1,-1,-1,-1,-1,-1,-1,-1],"split_conditions":[2.9381E2,2.6522375E2,2.98205E2,1.7938114E7,2.9281357E2,2.921115E2,2.053362E1,2.66507E2,6.1833315E0,2.8906232E2,2.83812E2,1.567869E0,-0E0,3.2843258E1,3.371869E-2,4.38463E-4,-0E0,-4.268452E-4,-0E0,1.6739639E-3,6.606977E-4,1.2763737E-4,-0E0,-7.7116274E-4,-0E0,1.7245895E-4,-0E0,-9.249433E-5,-0E0],"split_indices":[3,5,4,32,6,5,13,4,9,25,4,10,0,14,38,0,0,0,0,0,0,0,0,0,0,0,0,0,0],"split_type":[0,0,0,0,0,0,0,0,0,0,0,0,0,0,0,0,0,0,0,0,0,0,0,0,0,0,0,0,0],"sum_hessian":[2.19E2,1.43E2,7.6E1,9E1,5.3E1,3.9E1,3.7E1,5.4E1,3.6E1,4E1,1.3E1,3.2E1,7E0,1.7E1,2E1,2.9E1,2.5E1,3.1E1,5E0,1.1E1,2.9E1,5E0,8E0,3E1,2E0,1.3E1,4E0,1.8E1,2E0],"tree_param":{"num_deleted":"0","num_feature":"55","num_nodes":"29","size_leaf_vector":"1"}},{"base_weights":[4.124921E-4,7.8040916E-3,-1.1173113E-2,2.3947293E-2,-3.414212E-3,2.0098456E-4,-1.5937718E-2,1.2785985E-2,3.796925E-2,-1.3020537E-2,1.0017224E-2,1.5853678E-3,-0E0,-1.832496E-2,-0E0,4.2190973E-4,-0E0,1.321763E-3,-0E0,-4.5136778E-4,-0E0,4.5233313E-4,-0E0,-0E0,5.899482E-5,-6.0605E-4,-0E0],"categories":[],"categories_nodes":[],"categories_segments":[],"categories_sizes":[],"default_left":[0,0,0,0,0,0,0,0,0,0,0,0,0,0,0,0,0,0,0,0,0,0,0,0,0,0,0],"id":54,"left_children":[1,3,5,7,9,11,13,15,17,19,21,23,-1,25,-1,-1,-1,-1,-1,-1,-1,-1,-1,-1,-1,-1,-1],"loss_changes":[1.8847154E-2,2.7851176E-2,6.02071E-3,4.14221E-3,1.0881925E-2,3.6933365E-5,2.548337E-3,9.766296E-4,1.782883E-3,1.8235976E-3,2.4457974E-3,1.2571421E-5,0E0,2.0084437E-3,0E0,0E0,0E0,0E0,0E0,0E0,0E0,0E0,0E0,0E0,0E0,0E0,0E0],"parents":[2147483647,0,0,1,1,2,2,3,3,4,4,5,5,6,6,7,7,8,8,9,9,10,10,11,11,13,13],"right_children":[2,4,6,8,10,12,14,16,18,20,22,24,-1,26,-1,-1,-1,-1,-1,-1,-1,-1,-1,-1,-1,-1,-1],"split_conditions":[2.9237E2,1.640837E-2,-2.615674E-2,2.6592325E2,2.633885E2,3.0852295E-3,2.3259403E-2,7.7190514E0,-1.1394085E8,2.4744658E1,2.886205E2,1.849804E1,-0E0,2.7224854E1,-0E0,4.2190973E-4,-0E0,1.321763E-3,-0E0,-4.5136778E-4,-0E0,4.5233313E-4,-0E0,-0E0,5.899482E-5,-6.0605E-4,-0E0],"split_indices":[3,29,37,5,5,41,30,22,34,12,5,12,0,14,0,0,0,0,0,0,0,0,0,0,0,0,0],"split_type":[0,0,0,0,0,0,0,0,0,0,0,0,0,0,0,0,0,0,0,0,0,0,0,0,0,0,0],"sum_hessian":[2.22E2,1.41E2,8.1E1,6.1E1,8E1,1.8E1,6.3E1,3.9E1,2.2E1,5.1E1,2.9E1,1.4E1,4E0,5.5E1,8E0,3.7E1,2E0,1.7E1,5E0,4.6E1,5E0,2.3E1,6E0,2E0,1.2E1,5E1,5E0],"tree_param":{"num_deleted":"0","num_feature":"55","num_nodes":"27","size_leaf_vector":"1"}},{"base_weights":[1.4301544E-4,1.5974063E-2,-5.5451654E-3,2.5466481E-2,-0E0,5.216024E-3,-1.4707576E-2,-0E0,3.12524E-2,-0E0,2.3959666E-3,1.937029E-2,-0E0,-1.9591337E-2,-0E0,1.0425906E-3,-0E0,1.618189E-4,-0E0,-0E0,7.792713E-4,-1.8093674E-4,1.8819283E-4,-0E0,-6.255038E-4,1.509912E-4,-5.270534E-5],"categories":[],"categories_nodes":[],"categories_segments":[],"categories_sizes":[],"default_left":[0,0,0,0,0,0,0,0,0,0,0,0,0,0,0,0,0,0,0,0,0,0,0,0,0,0,0],"id":55,"left_children":[1,3,5,7,9,11,13,-1,15,-1,17,19,21,23,25,-1,-1,-1,-1,-1,-1,-1,-1,-1,-1,-1,-1],"loss_changes":[2.058224E-2,6.8783723E-3,1.6308626E-2,4.648993E-3,1.2629443E-4,5.306091E-3,7.2317775E-3,0E0,1.6385913E-3,0E0,3.1012815E-4,1.6426332E-3,1.8872326E-3,1.7736927E-3,3.3484295E-4,0E0,0E0,0E0,0E0,0E0,0E0,0E0,0E0,0E0,0E0,0E0,0E0],"parents":[2147483647,0,0,1,1,2,2,3,3,4,4,5,5,6,6,8,8,10,10,11,11,12,12,13,13,14,14],"right_children":[2,4,6,8,10,12,14,-1,16,-1,18,20,22,24,26,-1,-1,-1,-1,-1,-1,-1,-1,-1,-1,-1,-1],"split_conditions":[-2.1804012E-2,6.6664066E0,-1.8357552E8,2.5086E2,2.453145E2,6.23697E0,2.8590076E2,-0E0,-8.171712E7,-0E0,2.7801974E2,1.0937658E-2,2.7942776E2,2.839143E2,8.400558E-2,1.0425906E-3,-0E0,1.618189E-4,-0E0,-0E0,7.792713E-4,-1.8093674E-4,1.8819283E-4,-0E0,-6.255038E-4,1.509912E-4,-5.270534E-5],"split_indices":[37,22,34,5,5,22,5,0,34,0,5,28,6,25,37,0,0,0,0,0,0,0,0,0,0,0,0],"split_type":[0,0,0,0,0,0,0,0,0,0,0,0,0,0,0,0,0,0,0,0,0,0,0,0,0,0,0],"sum_hessian":[2.15E2,6.1E1,1.54E2,3.4E1,2.7E1,6.6E1,8.8E1,7E0,2.7E1,6E0,2.1E1,1.8E1,4.8E1,6.8E1,2E1,2.3E1,4E0,1.4E1,7E0,6E0,1.2E1,2.6E1,2.2E1,4E0,6.4E1,1.1E1,9E0],"tree_param":{"num_deleted":"0","num_feature":"55","num_nodes":"27","size_leaf_vector":"1"}},{"base_weights":[1.4736E-3,9.776704E-3,-9.713426E-3,-0E0,2.7708424E-2,-1.7488025E-2,-0E0,1.1596134E-2,-1.0046687E-2,3.0614385E-2,-0E0,-2.4166128E-2,-0E0,-0E0,4.736634E-3,-0E0,4.0677545E-4,-0E0,-3.873063E-4,-0E0,9.35594E-4,-0E0,-7.6445204E-4,1.9323487E-4,-0E0],"categories":[],"categories_nodes":[],"categories_segments":[],"categories_sizes":[],"default_left":[0,0,0,0,0,0,0,0,0,0,0,0,0,0,0,0,0,0,0,0,0,0,0,0,0],"id":56,"left_children":[1,3,5,7,9,11,13,15,17,19,-1,21,-1,-1,23,-1,-1,-1,-1,-1,-1,-1,-1,-1,-1],"loss_changes":[1.8771587E-2,2.2215646E-2,7.6491497E-3,9.147642E-3,2.7710795E-3,5.148506E-3,3.3653548E-4,6.2522944E-4,1.0590455E-3,4.0626153E-4,0E0,1.6367789E-3,0E0,0E0,1.1983886E-4,0E0,0E0,0E0,0E0,0E0,0E0,0E0,0E0,0E0,0E0],"parents":[2147483647,0,0,1,1,2,2,3,3,4,4,5,5,6,6,7,7,8,8,9,9,11,11,14,14],"right_children":[2,4,6,8,10,12,14,16,18,20,-1,22,-1,-1,24,-1,-1,-1,-1,-1,-1,-1,-1,-1,-1],"split_conditions":[2.9163635E2,2.76946E2,2.98205E2,1.6309861E-2,6.543482E-2,2.900255E2,2.480815E1,-9.7E0,1.7028275E1,1.8793781E-3,-0E0,2.83255E2,-0E0,-0E0,3.2843258E1,-0E0,4.0677545E-4,-0E0,-3.873063E-4,-0E0,9.35594E-4,-0E0,-7.6445204E-4,1.9323487E-4,-0E0],"split_indices":[7,4,4,29,48,5,14,19,14,40,0,4,0,0,14,0,0,0,0,0,0,0,0,0,0],"split_type":[0,0,0,0,0,0,0,0,0,0,0,0,0,0,0,0,0,0,0,0,0,0,0,0,0],"sum_hessian":[2E2,1.2E2,8E1,7.7E1,4.3E1,4.9E1,3.1E1,3.4E1,4.3E1,3.8E1,5E0,3.4E1,1.5E1,1.7E1,1.4E1,6E0,2.8E1,1.1E1,3.2E1,1E0,3.7E1,1E0,3.3E1,1E1,4E0],"tree_param":{"num_deleted":"0","num_feature":"55","num_nodes":"25","size_leaf_vector":"1"}},{"base_weights":[3.935191E-4,6.8547823E-3,-1.5344853E-2,1.2716992E-2,-5.1221796E-3,-0E0,-1.9379904E-2,1.9326708E-3,2.5871184E-2,-1.4970889E-2,9.3141757E-4,-2.1176504E-2,-0E0,3.004676E-4,-1.5218087E-4,1.5192177E-3,4.3307812E-4,-4.916466E-4,-0E0,1.6803583E-4,-0E0,-6.878009E-4,-0E0],"categories":[],"categories_nodes":[],"categories_segments":[],"categories_sizes":[],"default_left":[0,0,0,0,0,0,0,0,0,0,0,0,0,0,0,0,0,0,0,0,0,0,0],"id":57,"left_children":[1,3,5,7,9,-1,11,13,15,17,19,21,-1,-1,-1,-1,-1,-1,-1,-1,-1,-1,-1],"loss_changes":[2.2034684E-2,1.2339301E-2,3.6645392E-3,1.3625262E-2,4.3392773E-3,0E0,2.1521207E-3,4.4521363E-3,6.357029E-3,3.054347E-4,2.2929854E-4,1.370972E-3,0E0,0E0,0E0,0E0,0E0,0E0,0E0,0E0,0E0,0E0,0E0],"parents":[2147483647,0,0,1,1,2,2,3,3,4,4,6,6,7,7,8,8,9,9,10,10,11,11],"right_children":[2,4,6,8,10,-1,12,14,16,18,20,22,-1,-1,-1,-1,-1,-1,-1,-1,-1,-1,-1],"split_conditions":[4.143627E0,2.9107E2,5.835544E-2,2.7564655E2,2.9742E2,-0E0,4.635507E-2,2.58911E-1,2.8906232E2,1.5867226E-2,-5.1584736E-2,5.9405863E-1,-0E0,3.004676E-4,-1.5218087E-4,1.5192177E-3,4.3307812E-4,-4.916466E-4,-0E0,1.6803583E-4,-0E0,-6.878009E-4,-0E0],"split_indices":[9,2,47,8,3,0,45,31,25,44,36,31,0,0,0,0,0,0,0,0,0,0,0],"split_type":[0,0,0,0,0,0,0,0,0,0,0,0,0,0,0,0,0,0,0,0,0,0,0],"sum_hessian":[2.23E2,1.63E2,6E1,1.15E2,4.8E1,1.3E1,4.7E1,6.8E1,4.7E1,2.4E1,2.4E1,4.4E1,3E0,3.8E1,3E1,1.1E1,3.6E1,2.1E1,3E0,7E0,1.7E1,4E1,4E0],"tree_param":{"num_deleted":"0","num_feature":"55","num_nodes":"23","size_leaf_vector":"1"}},{"base_weights":[-4.4748062E-4,4.858656E-3,-1.191468E-2,-1.3399577E-2,1.0703095E-2,-1.970431E-2,-0E0,-0E0,-1.6023073E-2,1.7191248E-2,-0E0,-2.4913322E-2,-0E0,-0E0,-6.923772E-4,-0E0,-5.11115E-4,-0E0,5.9311197E-4,8.380883E-5,-1.303647E-4,-0E0,-7.659264E-4,-0E0,-3.0662686E-5],"categories":[],"categories_nodes":[],"categories_segments":[],"categories_sizes":[],"default_left":[0,0,0,0,0,0,0,0,0,0,0,0,0,0,0,0,0,0,0,0,0,0,0,0,0],"id":58,"left_children":[1,3,5,7,9,11,13,-1,15,17,19,21,-1,-1,23,-1,-1,-1,-1,-1,-1,-1,-1,-1,-1],"loss_changes":[1.3602108E-2,1.4706338E-2,6.3321237E-3,7.752734E-4,6.6088494E-3,3.7870556E-3,9.108338E-6,0E0,2.2409903E-4,1.8968694E-3,4.77594E-4,3.7619844E-4,0E0,0E0,9.695672E-6,0E0,0E0,0E0,0E0,0E0,0E0,0E0,0E0,0E0,0E0],"parents":[2147483647,0,0,1,1,2,2,3,3,4,4,5,5,6,6,8,8,9,9,10,10,11,11,14,14],"right_children":[2,4,6,8,10,12,14,-1,16,18,20,22,-1,-1,24,-1,-1,-1,-1,-1,-1,-1,-1,-1,-1],"split_conditions":[2.9381E2,2.4731625E2,2.98205E2,2.6208688E2,4.9949717E-2,2.85982E2,1.7686968E1,-0E0,1.3791958E-2,2.5031175E2,2.284812E7,-1.4256307E0,-0E0,-0E0,-2.0147648E-2,-0E0,-5.11115E-4,-0E0,5.9311197E-4,8.380883E-5,-1.303647E-4,-0E0,-7.659264E-4,-0E0,-3.0662686E-5],"split_indices":[3,5,4,6,48,5,13,0,38,5,32,10,0,0,0,0,0,0,0,0,0,0,0,0,0],"split_type":[0,0,0,0,0,0,0,0,0,0,0,0,0,0,0,0,0,0,0,0,0,0,0,0,0],"sum_hessian":[2.1E2,1.38E2,7.2E1,2.9E1,1.09E2,4.2E1,3E1,6E0,2.3E1,6.4E1,4.5E1,3.2E1,1E1,1.2E1,1.8E1,2E0,2.1E1,1.1E1,5.3E1,3.6E1,9E0,1E0,3.1E1,1E0,1.7E1],"tree_param":{"num_deleted":"0","num_feature":"55","num_nodes":"25","size_leaf_vector":"1"}},{"base_weights":[1.4887191E-3,7.930609E-3,-9.86471E-3,2.4907714E-2,-0E0,-0E0,-1.3688806E-2,-0E0,2.688218E-2,-5.5754227E-3,1.1947209E-2,-1.575641E-2,-0E0,-0E0,8.48881E-4,-0E0,-3.874825E-4,5.5094314E-4,-1.1683377E-4,-5.298489E-4,-0E0],"categories":[],"categories_nodes":[],"categories_segments":[],"categories_sizes":[],"default_left":[0,0,0,0,0,0,0,0,0,0,0,0,0,0,0,0,0,0,0,0,0],"id":59,"left_children":[1,3,5,7,9,-1,11,-1,13,15,17,19,-1,-1,-1,-1,-1,-1,-1,-1,-1],"loss_changes":[1.6487045E-2,1.9041056E-2,3.1877914E-3,3.2585338E-3,7.4571976E-3,0E0,1.9806297E-3,0E0,1.0306202E-3,3.3292582E-3,5.2801543E-3,1.3755094E-3,0E0,0E0,0E0,0E0,0E0,0E0,0E0,0E0,0E0],"parents":[2147483647,0,0,1,1,2,2,3,3,4,4,6,6,8,8,9,9,10,10,11,11],"right_children":[2,4,6,8,10,-1,12,-1,14,16,18,20,-1,-1,-1,-1,-1,-1,-1,-1,-1],"split_conditions":[-5.472139E7,6.2663975E0,-6.655373E-1,5.19843E0,2.7564655E2,-0E0,2.8555738E-2,-0E0,1.5069697E1,7.4457088E0,6.103845E0,2.3126774E-2,-0E0,-0E0,8.48881E-4,-0E0,-3.874825E-4,5.5094314E-4,-1.1683377E-4,-5.298489E-4,-0E0],"split_indices":[34,22,10,26,8,0,38,0,14,22,11,30,0,0,0,0,0,0,0,0,0],"split_type":[0,0,0,0,0,0,0,0,0,0,0,0,0,0,0,0,0,0,0,0,0],"sum_hessian":[2.26E2,1.5E2,7.6E1,4.5E1,1.05E2,2E1,5.6E1,2E0,4.3E1,6.9E1,3.6E1,5E1,6E0,3E0,4E1,3.7E1,3.2E1,3E1,6E0,4.4E1,6E0],"tree_param":{"num_deleted":"0","num_feature":"55","num_nodes":"21","size_leaf_vector":"1"}},{"base_weights":[-0E0,6.96787E-3,-9.952096E-3,-8.400242E-4,2.2414248E-2,-1.8107021E-2,-0E0,8.579286E-3,-1.0360699E-2,4.053276E-2,1.0633952E-2,-2.1416098E-2,-0E0,-3.1686064E-3,3.8864373E-3,3.5227078E-4,-0E0,-3.6876893E-4,-0E0,1.3176936E-3,-0E0,4.0351442E-4,-0E0,-7.201608E-4,-0E0,-0E0,-1.0521791E-4,-0E0,1.9951302E-4],"categories":[],"categories_nodes":[],"categories_segments":[],"categories_sizes":[],"default_left":[0,0,0,0,0,0,0,0,0,0,0,0,0,0,0,0,0,0,0,0,0,0,0,0,0,0,0,0,0],"id":60,"left_children":[1,3,5,7,9,11,13,15,17,19,21,23,-1,25,27,-1,-1,-1,-1,-1,-1,-1,-1,-1,-1,-1,-1,-1,-1],"loss_changes":[1.5219813E-2,1.8578352E-2,7.448498E-3,8.069031E-3,5.124377E-3,3.1979233E-3,5.079536E-4,7.1439636E-4,9.3526347E-4,7.2289445E-4,1.8314617E-3,2.058249E-3,0E0,3.065489E-5,2.577753E-4,0E0,0E0,0E0,0E0,0E0,0E0,0E0,0E0,0E0,0E0,0E0,0E0,0E0,0E0],"parents":[2147483647,0,0,1,1,2,2,3,3,4,4,5,5,6,6,7,7,8,8,9,9,10,10,11,11,13,13,14,14],"right_children":[2,4,6,8,10,12,14,16,18,20,22,24,-1,26,28,-1,-1,-1,-1,-1,-1,-1,-1,-1,-1,-1,-1,-1,-1],"split_conditions":[2.931665E2,2.77115E2,2.98205E2,1.6309861E-2,2.764583E2,1.567869E0,2.298893E1,2.66507E2,2.6527908E2,-4.25E0,4.8657503E0,2.3437597E-2,-0E0,2.90925E2,-2.9199712E-2,3.5227078E-4,-0E0,-3.6876893E-4,-0E0,1.3176936E-3,-0E0,4.0351442E-4,-0E0,-7.201608E-4,-0E0,-0E0,-1.0521791E-4,-0E0,1.9951302E-4],"split_indices":[7,4,4,29,6,10,14,4,23,19,10,30,0,2,48,0,0,0,0,0,0,0,0,0,0,0,0,0,0],"split_type":[0,0,0,0,0,0,0,0,0,0,0,0,0,0,0,0,0,0,0,0,0,0,0,0,0,0,0,0,0],"sum_hessian":[2.21E2,1.35E2,8.6E1,8.6E1,4.9E1,4.8E1,3.8E1,3.8E1,4.8E1,1.5E1,3.4E1,4.1E1,7E0,1.8E1,2E1,2.5E1,1.3E1,4E1,8E0,1.3E1,2E0,3.1E1,3E0,3.6E1,5E0,1E0,1.7E1,8E0,1.2E1],"tree_param":{"num_deleted":"0","num_feature":"55","num_nodes":"29","size_leaf_vector":"1"}},{"base_weights":[2.0448536E-4,1.5572E-2,-4.206271E-3,8.157559E-3,3.812123E-2,4.4818167E-3,-1.2613494E-2,-0E0,1.1495613E-2,1.2062328E-3,-0E0,1.998537E-2,-1.8003289E-4,-1.4279797E-2,-0E0,3.8583492E-4,-0E0,-0E0,8.066214E-4,-1.7685199E-4,1.6205343E-4,-5.472036E-4,-4.5204415E-5],"categories":[],"categories_nodes":[],"categories_segments":[],"categories_sizes":[],"default_left":[0,0,0,0,0,0,0,0,0,0,0,0,0,0,0,0,0,0,0,0,0,0,0],"id":61,"left_children":[1,3,5,7,9,11,13,-1,15,-1,-1,17,19,21,-1,-1,-1,-1,-1,-1,-1,-1,-1],"loss_changes":[1.631754E-2,4.256591E-3,1.3213914E-2,1.8284114E-3,1.7694198E-5,7.6216003E-3,1.6757855E-3,0E0,7.344079E-4,0E0,0E0,2.3803534E-3,1.8675869E-3,2.044635E-3,0E0,0E0,0E0,0E0,0E0,0E0,0E0,0E0,0E0],"parents":[2147483647,0,0,1,1,2,2,3,3,4,4,5,5,6,6,8,8,11,11,12,12,13,13],"right_children":[2,4,6,8,10,12,14,-1,16,-1,-1,18,20,22,-1,-1,-1,-1,-1,-1,-1,-1,-1],"split_conditions":[-2.9699657E-2,2.8688226E2,-1.8357552E8,1.0148983E-2,4.0588737E1,1.545136E-2,2.8984E2,-0E0,1.2118351E-2,1.2062328E-3,-0E0,1.2529525E-2,2.7537378E2,2.98205E2,-0E0,3.8583492E-4,-0E0,-0E0,8.066214E-4,-1.7685199E-4,1.6205343E-4,-5.472036E-4,-4.5204415E-5],"split_indices":[37,5,34,28,15,29,5,0,0,0,0,29,8,4,0,0,0,0,0,0,0,0,0],"split_type":[0,0,0,0,0,0,0,0,0,0,0,0,0,0,0,0,0,0,0,0,0,0,0],"sum_hessian":[2.22E2,5.4E1,1.68E2,4.5E1,9E0,7.7E1,9.1E1,9E0,3.6E1,8E0,1E0,2.2E1,5.5E1,7.9E1,1.2E1,3.3E1,3E0,7E0,1.5E1,3.6E1,1.9E1,5.4E1,2.5E1],"tree_param":{"num_deleted":"0","num_feature":"55","num_nodes":"23","size_leaf_vector":"1"}},{"base_weights":[2.2811441E-4,1.4420334E-2,-3.2746245E-3,1.9933429E-2,-0E0,4.0782196E-3,-1.1881423E-2,-0E0,2.574817E-2,1.038041E-2,-8.739781E-3,-1.5646752E-2,-0E0,-0E0,8.374594E-4,4.714403E-4,-0E0,-0E0,-3.0370438E-4,-5.125771E-4,-0E0,4.8330726E-6,-4.0778155E-5],"categories":[],"categories_nodes":[],"categories_segments":[],"categories_sizes":[],"default_left":[0,0,0,0,0,0,0,0,0,0,0,0,0,0,0,0,0,0,0,0,0,0,0],"id":62,"left_children":[1,3,5,7,-1,9,11,-1,13,15,17,19,21,-1,-1,-1,-1,-1,-1,-1,-1,-1,-1],"loss_changes":[1.1750371E-2,3.1308616E-3,1.13339955E-2,2.798967E-3,0E0,7.0404294E-3,3.46193E-3,0E0,1.2325868E-3,3.6912635E-3,3.9535481E-4,1.4610104E-3,2.4278605E-5,0E0,0E0,0E0,0E0,0E0,0E0,0E0,0E0,0E0,0E0],"parents":[2147483647,0,0,1,1,2,2,3,3,5,5,6,6,8,8,9,9,10,10,11,11,12,12],"right_children":[2,4,6,8,-1,10,12,-1,14,16,18,20,22,-1,-1,-1,-1,-1,-1,-1,-1,-1,-1],"split_conditions":[-2.7929902E-2,-6.526946E7,-1.7362272E8,2.5086E2,-0E0,7.732009E0,2.8590076E2,-0E0,2.1109192E-3,7.1361326E-2,2.6123376E2,1.7294388E-2,8.400558E-2,-0E0,8.374594E-4,4.714403E-4,-0E0,-0E0,-3.0370438E-4,-5.125771E-4,-0E0,4.8330726E-6,-4.0778155E-5],"split_indices":[37,34,34,5,0,22,5,0,40,48,6,42,37,0,0,0,0,0,0,0,0,0,0],"split_type":[0,0,0,0,0,0,0,0,0,0,0,0,0,0,0,0,0,0,0,0,0,0,0],"sum_hessian":[2.12E2,4.7E1,1.65E2,3.2E1,1.5E1,8.3E1,8.2E1,9E0,2.3E1,6.1E1,